[[0.7067200862276247, -2.549785901855386, -1.9280692122642829, -1.8864500534582391, 5.388140011457589, -3.5802201472420676, 0.07445487916147119, 0.6023673372518019, 1.9906860802008315, -3.7923205438060337, -2.653493710573329, -1.8742993565927677, 1.663943293445367, 1.4685381459403173, 1.9863064528089363, 0.5399708941847173, 1.0995086263609444, -3.140291536505687, 0.14095184482320347, 4.29249576838069, -0.12941640459488246, 0.9062471962887861, 0.5833584080384491, 3.1794567831269642, 1.4379555325900049, -0.19993751732971118, -0.3930645514194959, -0.7200379364529643, 1.807130441063669, -3.5294037457233656, -1.4838190593845375, 2.6261371682094397, 1.2239395281085597, -3.4381053596718343, -1.758117428355241], [0.10398703660418519, -0.5435880939019877, 3.620784120366478, 1.30079658091464, 1.7103164840456353, 1.7427622053566125, 0.013398702463616153, -5.150826367848235, -1.4878981858165592, 1.0901996925784119, -1.4469603333419538, -2.1516684005815683, 1.802808796075834, -3.194077985125221, 1.7326029061661659, -0.10010485745165602, -0.521294095386645, 1.3886717484367233, -5.019830154766137, 0.1017012967138505, 0.4524308293834243, -0.8003279146707447, -0.9363299266615327, 1.5886969453419817, -2.2999033550157284, 2.1007597046796427, -1.7859475912815377, -0.6348570244398527, -3.499039112788203, -0.4800306839232932, -1.2160069999279237, 1.7514814693333962, 3.4577569100290217, -2.6529540025098868, 3.99349615318488], [-3.055315034698189, 0.5873385117748755, 3.0700223904189685, 1.8917652292528226, -3.387144991404375, 0.6867110259380756, -0.5434618538425587, 1.4767729787460298, 0.6853919669638072, -2.990816652179938, -0.17440199812793, 1.161395181534639, -2.1027858437452798, -0.05082565108303455, -1.4300059449072835, 0.40944218760693113, -1.4078014854475993, 1.7838821651616639, -0.010911881359002475, 4.347153617790714, -1.3096501302414265, -1.2420667310177615, 3.1513025748256784, 5.226667761286777, -1.2273486463095318, -5.500590496382466, 1.5713847872140583, -0.49945700159829554, 0.344612234281253, -3.0687535795607905, -1.4840394505859729, -0.9000384349945376, 0.2812980632679631, -0.20690795261197698, 2.75149587348041], [2.8646316770653963, -0.1735020019423327, 0.2737387868678058, 2.493583495228266, -1.7360494247885627, 2.1375056702964645, -3.6941926316761253, -0.36943154667590444, -0.4342556289393375, 1.4323056579616456, 1.873223099546224, 1.0272819343005521, -1.4670989905090428, -0.3084964100165083, -2.3076886014528672, -4.646548438660455, 0.6174990652627871, 0.16627359427933364, 2.1797456998959435, -0.9223695464342345, -0.0713151444189673, -0.469158841698855, 0.8505484359152973, -0.5293777443716593, 0.655788755323171, 2.2628226052225133, -2.24010272247137, -1.3362124775042266, 2.328289598242979, 0.9476155926684002, 1.5797206604886969, 3.7698897249248335, -2.0908248680504107, 3.164386379801777, -1.8000180741342784], [0.9157232404132295, 2.841346192244606, 0.24398536681106545, -5.186615959955705, -1.3466998202187337, 1.517460991415979, -0.4957967137172399, -0.9684581050622634, 1.7571715980501734, -1.0201761526158812, -3.275421790047393, 0.5810266201066105, -3.7662986761607558, -2.572924951669701, 2.3379955677473245, 0.062075152423310145, -1.008912868969701, -0.6788666280460288, -0.8290245299041361, -2.931319318853805, 0.010736768662471812, 1.9180660887544376, -0.6785797670881785, -1.3409109577318445, 1.5633338358153677, -0.5675650643452012, 1.742916467983743, 1.5729898585086888, -1.3057631414552402, -2.0953472182225843, 3.158144698725451, 2.351457515433678, 1.3323937933166803, 3.31859664633636, -0.5788047858621472], [2.715693877273678, -1.5534995133467695, 2.00690804128259, -2.277740493864182, 0.564748098767228, -0.7402791688417677, -1.2010829724664092, -0.7882630475541725, 4.769641029907735, 1.4763980649676909, -0.25763865370418293, 2.842718554504294, 1.8643690670125186, 2.1116270466114426, -0.6332436141220618, 2.1971000662069327, 1.2704279697912424, -0.7447939993280795, 3.6025671902131644, 0.6959748117590648, -2.7781431530397827, -0.8352547595748117, 1.786754245154765, 2.102592526411141, -0.7312619628545566, 0.3876936251558182, -0.35854368577134865, -0.7353613056129892, 0.2643553947842669, 2.53828126745713, 7.177054648668665, 5.047422511419341, 1.8355964065672599, -0.7672506668703752, -2.4309938241999314], [0.8440796047406187, -1.573667780202648, -0.5121324385603466, 2.2771939587060146, -0.33490743899431885, 2.3964669711793953, 0.09445838635781434, -0.7072190477413282, -2.627475533731464, 0.014883508827933664, 1.798896218462979, 3.7307627223643567, 0.7226418011463297, -0.5811862137091941, 2.8372051301300565, 1.716469016108688, -2.1016147957873437, -0.7830103612728693, 2.813983056546048, 1.4351705882573615, 0.9875837312076655, -1.6382685179015066, 2.246640597242893, 0.1526329053736638, -0.4305725276602178, -1.9597897461315887, -2.69100734965233, -1.1471903851979883, 4.380966594681641, -0.3333731279064351, 2.0561021683139087, 1.5335934121924633, 1.0265033222635709, -2.2462212896079543, -3.4705477732331307], [0.7190256278975927, 1.7305488722510975, -0.5032072479687416, -0.6519261831024542, -0.24571550977493406, -1.7431279567340712, -1.3753572887737489, -1.5273816577286732, 1.993009817857803, 4.004508792208321, 4.675529337167719, 0.42565496273085673, -0.7966167031662881, 3.079004935979118, -0.12140297305987242, -0.8587219668182555, -1.3776988241321735, 0.4359931837348702, 2.6737897111978968, -3.6378835799161022, 2.1508561049053427, -3.231237677386785, 3.449093060658338, 3.7186846209081117, -2.6163318228890566, 1.0723120398831365, -1.5048399171110503, 3.222358517394956, -1.7957184790253224, 2.5551700507147195, 2.102887489764773, 0.4470106022541604, 1.1609843648098246, 1.1144785706056972, 1.3323708786073665], [-0.5821885863072861, 1.6404820061524727, -2.669963395126677, 0.5275898449442209, 1.8790473977524575, -2.4418414795419534, -1.0312077166449032, 1.169269187535873, -2.9587284179618223, 0.16327083987804683, -2.6239045463939075, 0.4326647815300802, 1.130733309011228, -0.2311299691487405, 0.5747310284473739, -2.17967738110349, -1.5142907344094656, 0.8952826740157678, 3.743996004601387, -0.48761077462878566, -0.8098786243986649, 2.8303120651637705, 3.783450181676398, 3.789835718208306, 0.060645514698267344, -0.8830834087281432, -0.8133800880329763, -0.9333505816573018, 0.3384786405764374, -0.2983513400058586, 1.8228600456540043, -2.6433669824123234, 3.5412750637250636, -2.0534099292841033, 1.8344172758945543], [-2.811228124761372, -1.2239028710550892, 0.7883787164111744, -0.24012676320735596, 0.7505579512137751, -1.5551120619306722, -1.5665622408122022, -0.47207780936997834, -0.49105105243005515, -1.0585118208841873, -0.7483100909027062, 1.8909231552682113, -2.127558758415024, 0.4678106539021351, -0.900045830410534, -0.2514796225182556, -5.42136840742495, -0.575871560136325, 0.5533239518843222, 4.119007290594217, 2.62075468890951, 0.4525876503815429, -0.10287266996300783, 3.645035525989621, 3.1272685571625574, 1.5718050831829045, -1.4562555571175908, -2.061089641192192, 2.420666265429741, -1.03934409133905, 2.156993550872651, 0.9729835486838059, 0.1810140935343812, -3.0292071536118192, -2.8089371622844945], [-2.2198761986520186, 2.078520302524761, -1.2860520622367448, -2.71290653823341, -1.453239997954615, 1.138169686167036, -2.1468458204393697, -0.8502899332933498, 0.5858004828295633, 2.016237443529874, -4.135332202701628, 0.037839372644898984, 0.29502031471642315, -0.4846435025489991, -0.7249605992223404, 1.311530712928756, -0.6227318007909198, -0.06267979695201736, 1.4244607636141744, 1.353061389922732, -0.16474179420433976, 0.5384353770581395, -0.310140048290377, 5.057152455862142, 0.4509786418274892, 0.09555338939922535, -0.5795285102374209, 0.15944251417745636, -1.5007231890670172, 0.16800008518491535, 1.5123359318247558, 1.6921777778058225, 1.5933555422595036, -1.1859659311788289, -1.02901414947319], [0.6168898652695024, 2.6372884060735506, 1.3935332186601153, -1.6086807012035567, -0.9266028909177298, -0.9377758271201284, -2.727176913742432, -0.18840311789140063, 1.6128086001918687, 0.5372895584720438, -1.0212856997555688, -1.8801121535536602, 2.290477415615586, -0.4866342875888931, 1.0050181621423138, 0.9496942138579089, -0.013098556534243867, 1.5600826589037255, -1.5329112594259284, 2.0355720956252927, 0.5175737218058208, 0.8391546581646278, 3.097705594562403, -1.2879982291612062, -3.7633141601300895, 0.6680908808622804, -0.6816609199945054, -1.3569210790551736, -1.7707815513522067, 0.2768943441286181, 3.5200811734385953, -1.1813986661893467, -2.4889927777558882, -0.4250693050883994, -2.9686681520534806], [-0.27055653392511303, 5.3164448050408835, 0.15200875376513637, -0.4999711330141292, 3.9783618181797937, -0.9014508698122509, -0.3184670902399335, -1.8849378077960872, -1.6415148074366313, -1.550359114540204, -0.29680043438385323, 1.706794649529709, 1.295002447031343, 1.6722840299433224, 1.858840465548948, -0.2463703163086789, -1.8673576502915583, -2.9280614167942542, 0.4626062700730765, -2.374147840072072, 1.1161207875800365, -2.3080938101212696, 2.7069104523897765, 2.3857928266567967, 1.1274251795578103, 2.207358980592368, 1.1860803413036276, 0.452147771807131, -0.2196344587999154, 2.095827038748831, 2.2039037095839524, -0.05606977255745431, 0.00232062328000612, 2.6406651121294025, 2.7461358261716953], [3.4883760700534783, -0.1542430161563333, 1.695219053094047, 0.04738271850906884, 2.472038073554466, 0.03117761246934876, 1.344716310600382, -0.07118119571887228, 1.31893884761567, -1.109555172661648, 2.0144216582593444, -4.583081089119263, -0.11074009181600948, 1.391063115821044, 2.224691072941652, 1.289407745906444, -2.9742707448892705, 0.10322051585057741, 0.3119654545293595, 4.173495572208847, 0.04180906630419182, -3.116168455515762, 1.0784532600684016, 0.07692452820806749, -1.4282974078959223, 1.572294365251456, 0.33679566084382184, 0.9510149397744598, -0.6512618107797704, 0.3744132770823107, 2.9087433762999666, -1.640890285888185, 2.452703222120601, -0.8585194241704257, -1.2026853396743153], [2.292173492375275, -0.07774481196069352, 2.769850292674015, 0.510270535082639, 1.986608518136878, -1.6678868035615964, -0.38139001305968745, -2.222082340575731, 2.0447854338067684, -2.532362762063134, -1.7321794803844712, 0.00668495830482866, 1.0706378255826332, -4.159782543957738, -0.2406394006516042, 2.277906380730051, 0.3661258839249592, -0.8220178791418248, -0.3368652405141078, 0.554074976628805, -1.748178193501875, -0.2808796589922848, -3.117300821335695, 3.55366777451597, -1.284681207617183, -2.3263286182795917, 0.17633000940630889, -1.0643197817490366, 0.7864091393924644, -3.2125064144150888, 2.465440908299967, 3.719944045111995, -4.886153039019721, -1.7385113316534722, 1.6490573939839581], [0.6005099799797793, 0.6655029978411353, 1.908950315284645, -1.9396797915084256, 0.019200880641062557, -0.0355171349623271, 0.9577701309141216, -0.592425211785328, 1.2692736534816056, 0.10427094655536531, 4.671369570097389, -4.012383797549502, 1.2070033813042733, 0.029809993416007336, -0.01673378976327817, -3.9791910976525835, 0.656706717145917, -0.6512725342286304, -1.9388984059239558, -0.7947768870742449, 1.7583281418516448, 2.609141682007322, 0.9317256921814988, -0.8762205461697001, -2.0433484039537175, 1.304053679254368, 2.1469539529174773, 0.1183216770406601, 3.6249687117562717, -6.091668097772165, -0.45924707555032146, 0.19938537943423496, -3.2515277927553665, -1.1712161045823066, 0.09969889099519424], [2.601821387648417, -0.30804707022015115, 2.0355726509518552, -1.5150541269866422, -5.126815920066506, 1.6960858776444858, 1.4878742215332845, 2.8110199855339926, -0.3883086674128198, 2.1292303722648573, -2.3757941757292205, 2.9435193650727376, 0.16799631543599094, -7.067006046448598, 1.0218682561732193, -0.24165225532906254, -0.44053771132783853, 2.475866867533342, 2.1522330484208236, 0.6748213844549872, 3.9338284790277873, 3.4930902941666497, -0.847328806872032, -0.6707283087882536, 0.1379020541585046, 2.054731588602611, 1.033952502521988, -1.217065609208991, 0.9348987495078933, 1.3960506137727942, -2.5451772596636792, 2.506689780028899, 0.820496648546438, 3.483121009766505, -1.0231486549404938], [3.346039582738282, 2.201295673082918, -0.1666512516761591, -0.9588111089685846, -1.3347083283255392, 0.9921528566040798, -3.089479655963978, 2.44780331753649, 0.7757349020607691, -4.521143086180464, -2.309716838002031, 3.0164734859513365, -2.6895207809879698, 2.2259416132792325, -0.9181317518910341, -0.329659264759716, -0.06164420688875124, -1.51588511265819, -4.942363304400474, -0.3491820543825064, 1.138870394726655, -0.8428176535812368, -0.7072753003739927, 0.31276316927175885, 1.61358015697569, 1.2331358633359946, 0.35778354023864634, 2.574887671899379, -0.005989118487997927, -3.1805857254821466, 0.39075620280795514, 0.0597024219428373, 2.124090059299285, 2.3406510466449104, -2.9489265396077062], [0.8373420063346284, -0.5047175394025563, -0.3867130379100067, 3.543933193520555, -0.20624089055664105, 0.712309958855099, -3.390122523544465, 1.9082614667480993, -2.263012733752968, 0.4029696842446388, -0.18108110251365767, -1.358221286433655, -1.1226101059859932, -0.3115952896366076, -0.5046976787846437, -2.803860553953536, -2.4774250304283454, 1.6103691163607068, -2.3132878673843225, 3.284440467222419, -1.099895988888403, 0.7769167900135848, 0.8624196762974579, 4.107363787237452, -1.7435270510674772, -0.32450495820389785, -0.9097806846393846, -0.7943850933106076, 1.268190137866967, -5.198718508112951, 1.6084315811594505, -2.5909090195483127, 0.9596619536735533, 4.553301160800054, -0.9444827266780549], [1.9929550399870473, 0.3619795094540947, 0.7757902108885649, -0.43868985545234657, 3.047073309156825, 1.0283789053485646, -3.2549766611464435, -2.7255586706609503, 0.7566551233379559, -0.33993704541506, -1.6488491757990085, -0.8694102096006543, -2.7184436875859355, 1.9839640134819616, -3.127867019793256, -3.1006899096659706, 0.23430758816471164, -1.8924129927848155, -4.192633947445977, 1.006885662139613, -0.23004240716487873, 0.577063503170821, 4.491008172218893, 1.7736572552431957, -0.4550752732295338, -0.28760612397343627, 5.701971928845768, -3.260215276709827, 0.3786257862680204, -0.21076137745037185, 0.6755473964134026, 1.4178573370747016, 0.35697805729665977, 2.5203714913523263, -0.7569712572895394], [0.20751879281220548, -0.17926579664509054, 2.6454820892255078, 0.03491681577344605, 0.8892740509158625, 2.6192498502172517, -1.502056520791325, 0.961106185511495, -1.6848551628464976, 0.47356219823307844, 0.9828412139695609, -1.977719422880743, -0.513475497659279, 2.6141970399475927, -2.136257591805713, -0.09939101300750634, -0.1820004032189232, -1.89903920971025, -2.3846064681666213, 1.4997719662223292, 1.0361891414302848, -1.0011733977758956, -0.08916650902243635, -0.6209828374919246, 0.944607931127667, -0.4125366045577343, -3.5605431233407723, 2.9824330919722826, -0.6711429751996565, -1.1267218700029087, 0.12941034156225623, 0.8948440952404918, 0.24074575772526494, 0.5566965607351434, -0.2886214972503822], [3.444054811605831, 2.1587380398775164, -0.5829071812031736, -4.176661485042613, 0.4780582139478339, 2.5133653174710915, -1.0147485788886113, 1.3192211786158927, 0.3034523349202082, 1.4656855245418998, -1.8608342484696776, 0.38885900928354844, 0.5419637710694598, -3.250059051890501, 1.174677309431917, -1.752696730054325, 3.6757035291093043, 1.5014462261670662, 1.4528006135675404, -1.265869557083687, 2.0415769613168773, 0.044308855566171174, 2.34736674269943, 0.36274647898563955, 0.38415057541814535, -0.900138051148167, -1.7201241055075227, 2.25669063164908, -1.8676622132524296, 0.0939298004322087, -1.6328514496271636, 1.5460473822267524, -2.181280657707966, -0.884248071121116, 1.3951472207216444], [0.8562566640476242, -2.6737568528427684, -2.61077312219228, 0.9587557886588649, -0.5365460975440511, 0.7534368856529091, 0.9320065608730065, -2.3342118443672115, -0.3935440826423863, 1.3032815263231214, -1.7426896644611596, -2.267603085168767, 1.707307932832895, 2.979872853290982, -2.2705261688007448, 5.128989512687935, 3.0773138764665298, -1.1627088480115781, -2.918943096653863, -2.2554643194036315, -0.1797622092253134, -1.1736731682259434, 0.43033565649392697, 3.4997890608416817, -0.7200690664492445, 1.5209490468624065, 1.3198838347814486, -0.16357491926283432, -1.8653905406520512, -0.0047082438025931785, -3.3273235903701504, -0.6289538134247663, -0.9944398762495722, -0.6855498282065932, -0.0037797439848498], [0.8710961481712238, -0.060686232851236345, -2.8801530625383207, -1.7508843257012972, 1.9311043421155232, -2.190366515905716, -2.6080225995285162, 0.0089910970078486, -4.343388014015071, 0.08895298216403724, 0.4639624932014882, -2.0001494206966863, 0.1408553485332198, 0.5644001586898352, -2.124135534365498, 2.6989984773116853, 0.12887464647807234, -1.1485775386756072, 2.5791678722502533, 0.9593815425842805, -1.405398019233019, -1.3878238047528308, -0.527400075637881, -0.5439302948457361, -2.5652341982657085, 3.314963368249743, 3.21801786772147, -2.171173857159858, -0.3676449736457074, 4.5070144973732775, -0.8809164325948966, -0.6425597917933612, -0.21960533471128535, 0.08308055898536053, -2.439890217412906], [0.6878738803246643, 0.7874002090809837, 0.6352647861956959, -3.231070920009604, -2.0251573281058826, -4.437647879441318, 1.064144012864269, 0.421122864027458, 0.030615491247854204, 0.9786145671090256, -0.04723139472732083, 0.640378378381246, -4.053274662981438, 0.923685460624302, -0.7131529451064957, 2.856905655389932, -2.1651987647349022, -2.7204000137109627, -0.25198443821611644, -0.8594904350581206, 0.7888066475825927, 3.611011232351987, 0.8820486403835907, 2.4978363500424168, 3.059095515943801, -0.7272686949067956, -0.4435071854567237, 3.258197877089315, 0.4067921195122236, 3.109792744139764, 2.663056095370838, 0.8766186983362777, -4.047185919057501, -3.537049336662255, -0.24391466781801777], [-1.6925806873510574, -0.9462158004820623, -2.6258493685519477, -0.5745667741171682, 0.5262379140377444, -2.5896389092979812, -1.9572411230673636, 1.3253876293274436, 2.8461695152983237, 0.7390026436219271, -1.7700957427379875, 1.0882432312678592, -1.6176289096664356, 0.9107209023217221, -2.072246799693484, -0.977088137340209, 2.344718306567344, -0.5861937667209417, 2.1355784607547363, 1.3302312673074577, 0.3848364163267427, 2.801475794680306, 0.773791099905208, 1.1710285235231266, 0.4385335140044846, -0.0009915308195421033, 0.43836676157985593, 0.051620464652183444, -1.2760368154743955, 2.8087819866744494, 2.5843556636544336, 3.159540941952114, 0.18964684357484782, 1.7422192597084658, 3.6429213251814336], [-0.9304751793424938, 0.9743473631868755, 0.059504155791704615, 1.7629139155923634, -1.610287063102015, 0.5198416084908914, -1.6468644304001399, -2.136593889370855, 0.43683028382783967, -1.3950890445447142, 5.004725539954213, 0.5183846934227305, 1.6034215479523446, -3.475328660030002, -1.2066343292727972, -0.6137200265031973, -1.7540764049756203, 0.5511517666086865, -0.042396952109838786, -2.8129684771994268, -0.4968742521759761, 0.051990136485216956, -2.804289607891767, -0.9890839949082286, 1.293385144281707, 1.6284767734656833, 1.0758070856705706, -2.6830971986388663, -0.08774842635806489, -0.864941632287231, 1.8337434585990346, -2.1196724354334875, -1.0598169462582903, 3.6103117843776094, -0.3352614173546585], [2.6775704705929315, -2.300710112771965, 2.1175690559147298, -5.845117201248071, -0.4066756388217811, -0.45431876160808904, -0.3511170656889317, -1.7552386170440832, -1.3261583387073002, -1.0850679674578887, 0.27199145762725535, 0.9230935473811643, 0.15428209697497988, -2.4829398860821295, -0.36831118527083273, 2.922937904016145, -0.7409888618563816, 1.8323422640132403, 1.1665376311410278, -3.9874595671616273, 2.6643552571135185, 1.9593714623552083, -2.3034484732131313, 6.711646594655788, -2.077932911296181, 2.834034722172317, 1.8588021630814033, -1.2211092265976744, 1.0010716359030012, -0.6951074764997103, 0.2944248525934494, 2.3897696005578926, 3.6419325225765555, -2.8035037541131094, -1.4098191451073951], [-0.7105835570256137, 1.424515194802193, -0.044278404562384695, -0.3307359583551652, 2.351749026970123, -0.7870123522826916, -0.6451532187826633, 1.645821586149108, -1.8566814377747667, 2.884088569449528, -5.069688168639789, -1.7317327951484254, 1.0763614606032263, 1.8586821056495577, 0.958720952792765, -2.0402167192782885, -0.2579901710773469, 1.0242332429890124, -0.1842876017151511, -1.1264843674948875, 0.03703759227021973, -1.386903923261403, 1.6673081612642608, 1.4989598657358771, 1.3034129392074334, -0.9281350865687391, -0.3055222899877667, -1.6193358633056822, -3.8629717348904817, -0.5625017079681782, -3.0219483096281423, 0.1415663084821593, 4.968113888162354, -0.4901326098600806, -0.5657888258869126], [2.281733044375519, -1.3399268100049748, -0.9024382173178566, -0.9954936941932313, -0.7524392599845199, 0.39400108714208176, -0.7495460090681305, 1.2687981576454337, -1.0205784768561417, -0.1443453004596094, -0.4947024076214547, -0.3376075442918389, 1.601747288209028, -1.9054478234383636, 3.6871413207486325, -0.1887352549074435, -3.1705683766804174, -2.157982677441216, 1.7537848624921792, -1.3710012833453846, -1.8118682849877277, -0.33871233903314496, 1.7382331636030792, 1.4329159942352725, 3.321711041901463, 6.05467370860757, 2.3744581074518094, 4.994503560520287, 0.4364344217254542, 0.08623569420465509, -5.713258720809306, 2.5560511893013667, 3.6066880197564766, 0.5255701946848345, -0.6933335894324486], [0.1503336645650038, 1.7904810510688753, -2.5419027460705617, 0.47114092520162043, -0.30169895736235697, -1.9482177813774733, 2.120714877686513, -1.0372105611225149, 0.11994890462177679, 1.6822459663828038, 0.8670312129459056, 1.8409521949388081, 1.6905853068339587, -3.736095436423381, 1.0594351445842256, -2.165547523826231, 0.0898882881822286, -3.77201446996816, 1.669507401454805, -1.6475453483394429, 6.097591318116795, -0.5430816247652861, -1.5305369834849638, 1.2822327220501417, -0.3286803985556377, -1.9531748024713913, -2.2076978299988137, -1.6713182244034819, -1.8273389652499128, 1.1380017242868679, 0.7508150679374049, -0.9325975717380045, -1.3718506161742912, 1.8347728986640084, 4.164203904779373], [1.658283006468867, 0.7514640275645803, 1.6443304458109136, 1.393976494991542, -2.9351175451088363, -4.102912373335601, 0.02823403919178917, 2.1047622860761708, -5.160812899438756, -3.1377142683095007, 1.3471653682268983, 2.8482348737288516, 2.0371438590071342, 0.4436009689073146, 0.3438844502043283, -0.9832435045800325, -2.128923330048801, 2.707483983536018, 1.7665541504235958, -0.6206908707574554, -1.5774484681086525, 2.629545149847103, 0.28681279585156616, 0.8220713525974965, 1.8981099277383133, -1.6508340088328342, 0.3536810989021215, 4.5801192976559255, -1.106005042135969, -0.0432060685329457, -2.0112826926622853, -0.4734097501933793, -5.237955661895121, -1.9551706503610722, 2.087257785356455], [-4.25310992476846, 4.7362026995629645, -3.9183202293119423, -1.3685825716182274, 0.07083051887248565, 1.3078742400198815, -1.7226874260175444, 5.359493454266742, 0.7288989686781725, -2.371324337734839, 1.2628571297110327, -0.04599340799275733, -0.3971863620234433, -0.48153120088133283, 4.005460457203298, -2.868839336192166, 0.04885018645121279, 0.6425496902973891, -1.3521831822343229, 0.467569962449365, -0.3303598907173571, 1.1948680903546742, 0.028410839716945753, -1.359935151528554, 0.6063834867305916, -1.5958673538832624, 3.2563644027471685, 0.6506443165163729, 1.3317670554182433, 0.8397021584781098, 1.47307809052633, 2.5119792647693613, -0.19069146564332487, -3.289858579313466, 1.2847271172336774], [0.7157202208270954, 4.137600625847775, 3.385842449591713, -1.7685189021599481, -2.7053307635941994, -4.854918800366549, -0.1986205059028776, 3.151924732486413, 0.37372440660253115, 5.249183299413292, 3.4767783347964247, 1.8924282349629142, 5.996044058805384, 3.874096526481432, 0.13586785656441522, -4.012884247646774, 0.5125980570978416, 0.09412562040386789, -0.4956134921713773, 0.6509783797741123, 1.1960658896742553, 1.2712358201066227, 3.6054299086834707, -2.098434192029449, 3.896960863754274, 3.589375864320736, -3.0028486653689956, -0.059343321745633434, -0.24859037156984423, -1.3184080789454282, 0.9237821032273028, -1.7928501422710488, -1.9475515382220265, 0.80675268895223, 1.1900028125266384], [-0.5519183645890998, -3.28741634232583, -0.9686627190454593, -1.4723525746839468, -0.8567272617533013, 2.2265867345442962, 1.2992965617817713, 0.8225468703333321, 1.2580280401116493, 0.7069591630993525, 1.5972028559365197, -1.5224216812285616, -0.47969164274096315, -3.829753302557518, 2.003944386062983, -2.031904956009375, 0.37764130512964167, -2.744171220234673, 0.27729084602726506, -0.9976576158317442, 1.812315103802726, 0.2018083652283459, 1.581831564582006, 2.4412501727969187, -1.4749781811630964, -1.5120242169232792, 0.23924823551968952, -2.796942113304741, 0.5033943123053701, -1.1191322689956973, 1.9736748677118399, -1.6790619430479465, -1.9688948609922639, -3.09057963088119, 0.6796844993987083], [-3.6752759872283627, 0.5201216102105776, -0.1797705049173664, -0.929761100101161, 0.5934276345636521, 1.0134917116087878, 0.7163109331532214, 0.018231403680620352, 1.4420291813325063, 5.507922059281326, 1.8960464095208196, -0.955063576919252, 1.2289330154643243, 0.9113979375428499, -0.7914336159059919, 0.501822337319379, -2.17702412444984, 4.4021505044110025, -4.564039502429664, 1.9626105548528738, 1.1653390994818857, -1.8203336808898025, -0.30708853365647354, -3.5852521103092103, 1.6003358046693918, 1.307048175305164, 2.1913332190027357, -0.453538914118155, -0.9759098594423852, 0.10244311409966754, 0.43300275158064216, -0.35871187332391413, -2.405472075702291, 0.49349846328185704, 3.689072705324062], [0.20849085623920913, 2.0770478011963203, 3.436115685127198, 1.134791568944792, 0.7129057793944101, -0.4236629892625091, 3.1039924354183683, -0.599833637304211, -2.031349757150784, -1.1642630161103507, 1.0277534162509496, 0.2028983705619509, 3.6113073328258007, 1.5233853319777901, -1.7823742490377155, -0.20417764384116596, -3.2324697313441773, 4.205073816180153, -3.2616480941867674, -0.17392723128191898, -0.1286271051871727, 0.3024877468468444, -0.014091150155960002, 0.4187812631120561, 1.6046089676854418, -3.554225728617201, -0.6153138820432249, 0.21682314988249976, 0.24117200425585741, -2.5791311813321656, -1.2972887028537874, -3.7859274641087612, -0.9683500424292413, -1.4739143797841627, 0.6809362072070828], [3.830479553931306, 3.426310471213396, -1.7351112339179655, -1.6423409635766495, -2.6424420549820256, -0.9166496065364615, -0.018800545525405592, -0.23649558431425083, -0.22125440641036007, 0.38335241217577687, 1.879341354241381, 0.8184116121586391, -0.3301514315745617, 2.6840768509400323, 0.11273647589052303, -2.30546330199992, -1.5360729485160887, -1.3980247920192284, 0.9179213764575056, -0.3509927292959127, 3.8351532363406693, 0.567519217902704, -0.5093207831026034, -0.3079514950729237, -1.7806845394369388, -0.3272510186347846, 0.6562732585010008, 3.6469965597931835, 0.7779527345574777, 3.4394346047280457, 0.9352473161524922, 1.9324605040256504, 0.3253386826098134, 0.5297500001342489, -1.6879868355056997], [0.355505202879067, 2.9091329462104984, 3.8142504303166676, -1.6522241460051095, 3.23683867385695, -1.0712193068835716, -3.4246732166162723, 1.8884699212079512, 1.8315592986459814, -0.12813241065407532, -0.09423979558480201, 1.3877958968661248, 1.1921326785984796, -0.44242595585038486, -1.8529906655470116, -3.2103845706337193, -1.975655878898622, -4.108573139690459, -2.09615399739595, 3.0273746743960337, -0.6818310410086864, -1.8621607919269645, 3.580189143467066, -1.899252447265617, 0.2924597182052006, -0.19115123286185903, 1.3919872207654433, -3.4235262911657656, -0.6688230851299073, 0.13939921620717155, 1.3436872222310856, 0.7459741208173611, 0.9337240163996264, -2.282549819839788, -4.166475803440428], [2.7108442997332984, 0.4506222855741561, -0.03989544986320223, 2.47089427341529, -3.8140054831120214, 0.33104231044793847, 3.307838188239522, 4.325855887149118, -0.10497753504132491, 0.663758511022948, 0.05708907778989417, 1.2556592926144319, 2.7066719398271997, 1.5706437415775736, 4.798425922169762, 0.3530115666259086, 3.282471340256339, -0.5885175872430477, 1.0676231272137813, -0.49063669298928325, 3.648581016242141, 2.8528032833112116, -0.22536996867469333, 0.4039540525950265, -0.04746498296584404, -2.6303183300415136, 2.9689363492521648, -0.19657107944308008, -0.061513460975622755, -2.6130837979870694, 1.7098430701519987, 0.45465597570568445, -0.05716566894585779, -2.4631416003166784, 0.9627357658362594], [-2.104517962931195, -1.1362258644563712, -0.9345201849128643, -2.1535565025594003, 2.9081187599139913, 1.499164140259822, 0.04538303212404765, -1.7212546386142804, 1.826583666404506, -1.8282207577802203, -2.172604165685753, 2.9759086563461428, -2.627165201662148, 3.330160279521121, 3.545102202187934, 1.0672420483310356, 1.4850961312596367, -1.2296166861161073, 1.2245370533001523, 1.6005141570575128, 0.18943879390196297, -1.8982069873255598, -1.8996720462670014, 1.3773293933312705, -7.840432286899977, -1.6516560337732813, 0.31145131790792924, 1.7340669101435748, 1.8444693659343105, -2.9929093830880085, -2.66338234576313, -1.8624341946439025, -1.0777004783534918, -1.8858391993908565, -2.8539923737517365], [3.8404791919031296, 0.4944575319001703, -2.1176454324546037, 0.5124772392310993, -0.5787136882485062, 1.8488715973437106, 0.05004792478842602, 2.195441772658065, -2.2137821860680575, -0.791187521393779, 0.09371192365858408, 1.312582941348386, 1.6588199420883978, 2.3936782066772246, 1.1400493327522931, -0.6998534413001385, -0.4649385673344392, 0.28029089009437347, 2.1147105405867803, 1.5509551653345282, 1.65962477932358, 0.28523450683388163, -4.426606201671664, 0.8494342626970848, 2.467779824755055, -0.5953788995584067, 1.7468781057254539, -0.6464151611472133, 0.4433775639175435, 4.870987454810303, 0.8666323476712325, 3.0318531910768916, 1.1116632545061982, 3.941653804962076, -0.38030984987055894], [-0.6191737391347192, 3.516153202641716, -1.8104600488737574, -0.5944275110767961, -0.18584685793615247, 0.9713853534417137, 1.3637881223676136, 1.1569684450860436, 1.2273161316412269, -0.5244000463376319, 2.735988193005981, 4.167258338238151, 1.01956652932899, 0.10231160846877534, -0.6894838081116267, 0.7985665775321081, 0.8482532750779845, 0.6581261956018627, 4.129739923892165, 1.8633983136460501, -0.7077680022123224, -1.4733376802406535, -2.591817275902191, 0.8808397160608263, 0.6825168539479751, -0.7893361665256118, -1.5920424170195793, 0.029929464869287478, -4.7579384882057285, -2.6760189764852753, 1.2681583176027826, 5.2767707719690655, -1.1957539141846412, 0.8968142806790599, 0.36182182228542525], [1.9882008010596892, -0.8800408886461002, 0.4042586347043888, -1.975792793343781, -0.42168174208796066, -3.472162092153214, 1.5074732421391444, -1.8631206725279426, -1.0901376224777215, -1.3702676603643835, -1.0624556838119068, 0.9971231803061584, -1.0900723781495174, 1.2138631189008668, 1.885979739760157, 2.145544589392443, -1.1831449498152238, -0.45971651049628637, 2.0685756968184768, 0.4245122210736527, -0.47112903642572834, 0.2692873744710661, -1.051286243740994, 0.9594945754633678, 1.6799712780492713, -0.3052441965500739, 0.8569186978770901, -3.3242005291810988, -1.0424616049539375, -1.9330049884269498, 0.28522826815257274, -2.3038414781406154, -1.024993844395172, -0.07172024863183864, -3.2285120221791526], [-0.2129047917280905, 1.6161300349873047, -3.1634921704216605, -0.03604800685254837, 0.20417595993489066, 2.3985270215028938, -1.5879539380044612, 0.9554959169949059, -5.109998537716339, -1.8328537687788715, 3.210561394438383, 4.911233360274687, -0.7651761719449066, 1.0422163543470024, -0.21798427831210826, 1.3375204245036523, -0.5988796069451034, -1.7474214263794978, 1.8737605749874644, -0.43364660627354634, -1.241589107237526, -1.0586506990715092, -0.8846162300002655, -0.4774343292585376, 2.3516020661242747, 3.3756375627487203, -1.919579249545991, 0.3270797894530329, 1.070448225995812, -1.874529920483615, 0.40526717887505964, -2.7406710803000793, -0.7598115734888743, 2.259362567455196, -0.07582372434640594], [1.888810620508796, 0.40344172792756633, -0.14598726951739582, -3.19500807875212, 1.2750287775860167, -3.1583377551089935, -0.8548767965947196, -0.32104416320385915, -0.5731154331355848, -2.065633912283914, -2.194818934896694, 0.351006458444463, -2.914586317839779, 2.3249152124811374, 1.9193056803425046, 3.2854913293978623, 1.9403604306994948, 0.034931778178404836, -0.007177060630169522, 3.7815324862916464, 0.5986362218216911, 1.4071972815177551, -0.028288126274971664, -0.03598430922510587, 1.8515768653141838, -1.1585225020179055, 0.051633730023104, -0.03523536706646448, 1.2155805494273415, -0.19997250870390587, 1.586400190305539, 0.7464663308337245, 2.237582388911291, 2.289990154381319, -1.1881845400293067], [0.8262178217897239, -0.20736809711049725, 0.5267392367346498, -0.5302193993053125, -0.01669016633281937, -1.5365328710048929, -2.6298411477358745, -2.950452112419963, -0.7319476303032578, -1.4273578593008067, 3.299492211247099, -0.4087397642625245, -1.5654478074568352, 1.8188297871430783, -2.241395745925816, -0.5796414488163047, 2.019376731122215, -0.2620914971829244, -1.4699733562149917, 1.183072539011374, -1.8691342896787517, -2.065120216483875, -2.8412632931074686, 2.4596697719128717, -2.319040073254091, 0.3234728196256717, 0.22604295167910501, -2.1838184151872944, 2.4325657109102075, 1.9624758546717211, -2.351823797790965, -3.196219251554909, -1.9502700493045553, 1.2712102880951386, -3.172888868523252], [1.2391382011907164, 1.9886681581252947, 1.9114264590060064, 1.2573581469272281, 2.267290823151053, 0.24750381647132078, 2.063159230007574, -1.0034206983630234, 0.9056676615166751, -0.42483145188594656, 0.0962632184726266, -1.5754750553324381, -3.883050483766408, -1.0944322897928738, -1.300469634048275, 3.9381356246025137, -1.4693375708906773, 1.3541383918650782, -3.4578708886228915, -2.7561249331154687, -0.4893065670668246, -1.0753905118742135, -3.1501567964667068, 4.916491649323689, 0.964807461355264, 1.6893371862741637, -2.303854482915315, -1.164835085478438, -3.397120647702712, -0.25264091539482597, 0.9135084882150438, 3.309657987841534, -0.15435078436675714, 0.7454480538316243, 3.1909796630552614], [1.2818909579518414, -0.7763892159680004, -2.7578271659888527, -2.920100621752374, -1.7238669169479106, -4.277787975817511, 3.8101450913742174, 2.47864725838093, 2.7377849329693094, -0.5715410448727566, -1.0538457909130996, -2.0704464858508334, -2.05035130025456, 0.2529157357913145, -3.566677771808095, -0.10404461741972826, -0.7014048837622611, 0.8305947055238839, 0.45429921490962993, -1.226092824424987, -1.5620705141895077, -0.16661579642199303, 1.9243168649971774, -0.26718114662495607, -3.4536929082563965, -2.3478747861002423, 0.956280506200079, -1.1651978674052674, 2.738281960307926, 2.16045158689227, -0.038845970306389505, 0.27549269688287864, 0.7270953688772221, 0.1907703604060886, 1.5146571327740403], [0.37947094946683807, 3.7116715760289023, 0.339273058414034, 2.2302344396374316, 0.3117655610276404, -0.723668656686218, 0.6181273046926907, -0.3536792705814608, -1.9374855119153165, 1.0376854596200729, 1.3327946321025324, -0.3390520580789631, 0.3102611983517658, -1.534121476310129, 0.33446515356524303, 0.8803522186420766, 0.14553202707797558, -3.1121577251584434, 1.8162088904844107, -1.875715672293575, 0.36709313897402845, -2.2316367819167544, 3.0818294539402293, -3.640490555429449, 3.906206190461265, 3.473167676632666, 2.303537195112328, 3.2065256173511596, 5.136323148641897, -1.3637845912289255, 0.9819138409924997, 2.0845006105070962, 2.567973617514188, -0.8013212499732117, -0.3543163170110644], [0.2757297165085117, -0.8434901608805518, 2.4985477755556413, 0.05267985150842082, -1.3286221868308548, -1.0657877448712643, 4.163220130793981, -0.6483452785714469, 0.6621770829381385, 2.383628086977193, 2.2259403262137787, -0.46296459095718256, -0.5421909488859054, -0.24828998101809902, -2.6218680718778895, -0.5647904257705161, 2.3143758854075056, -2.529269123758005, 1.3456699754350627, 1.0169114935421844, 0.028575478626818855, -0.1506081720832876, -1.4353814711193085, -0.3992154165774557, -2.269735900930949, -1.2086291044647768, 0.8277632118078792, -0.40748146715790645, -2.82810484311335, -1.4780215358547117, 1.3382281224628036, 1.7895239546134503, 0.35796069606263603, -1.5266307375052846, 2.1965171971334936], [0.2869950900852926, -0.38134213351512647, 2.34455961304206, -0.7551188030230964, -0.15463771013563526, 1.5861111445845848, -0.28460558473148473, -0.9899373212112628, 0.6313137963170496, 2.955091265058232, -2.6404375408669956, 3.699954822509515, -1.1791962235332925, 4.288496401627705, -1.4324267918957039, -0.19366604217018837, 1.0341687996460092, -3.9916304795478585, 0.7002863109047239, 0.05554060169306793, 1.5574435333192684, -0.5559840189577797, 0.8438470330281869, 0.6571119655665015, -1.580582474630323, 1.6498690680425803, -4.512619215204301, 2.5455118518827953, 1.8058938598722123, 2.482722926648875, 1.7408474663277953, -3.338147127629044, 1.6772585394928239, -2.1138422714592067, -2.766689290661431], [-3.4155039604936555, 1.8311732297878016, 0.3781810928421348, 3.320620601790947, -2.348525178393698, -1.1223240162843477, 0.6556580984708533, -4.307529716982849, 1.2822161729213815, 0.026588493870726582, 2.6073401955830326, -1.0599695451182964, 0.32517872423751826, -0.6516625210987488, -0.17936627066446498, -0.05676137880424096, 1.2309835445194808, 2.223202504303182, -5.992823270123583, -0.4779455109485218, -0.625451960178575, 2.017522286895233, 0.5365990174733124, -3.238714473060988, 1.255059711884574, 1.4758024971041452, -1.0211716365753443, -1.4703820530549272, -0.24564193937595477, -0.03760900000167137, 3.7176346622624443, 0.3692175256558162, -4.018654035330553, 1.2577341458758047, -2.129216556340153], [-0.9768730296718321, -0.9056400240664654, -3.49086364316189, -2.774169760514443, 0.8354193135649461, 0.8092247759005237, 1.8697047381876495, -1.75413669668488, 0.25125180937210867, 1.2605478789583044, 1.7973931906218403, -1.3364947632311721, 0.9388917115110221, -1.289972079338059, -3.0333791949382762, 1.508286583973274, 1.2798178263187883, 1.045417026884489, -1.2716061270497578, 0.6034502395865162, -1.5121093808303367, 3.278440540472175, -0.4390071292682526, -1.1568452357533645, -2.934549791571034, -1.0596233839493758, 2.2233761050481755, 0.40970824515550813, 3.4694020234525023, -1.5108314078777256, 3.036788997334209, -3.1241843721994513, 0.6377338706090631, 0.0336502481776468, -3.2557698429583155], [-2.2512030280299817, -2.413135518762339, -0.845925942414484, 1.658943218468788, 0.29093197533798604, -0.9747486617283306, 2.972186251517409, -2.0599695846755757, -1.216990409377519, -0.14480808771575182, 1.4062944064946594, 2.225001226331442, 1.1315031187516253, -1.9697111105602836, -0.13261518407223474, -0.6049893906820856, 0.9151932984265277, 0.804548153051535, 1.274325653414297, -2.029464391423857, -4.256538264846791, 0.2578298200238377, -3.2876879774532872, 0.6298979448786554, -1.21759200138331, 1.2094980779150422, 1.4491102112197782, 2.6268813233753505, -1.5624692588210614, -0.6861230934392322, 2.163432923206705, 0.19928792916585603, -1.6629140257994233, 0.029935306880495886, 0.15488601062919682], [-3.456510160840322, 0.7767901207884575, 0.47158553594352853, 0.7693695147967046, 1.0062901014959413, -2.277568702145182, 1.5446071735139881, 1.2465176282745036, -0.7261526328531439, -1.8062341052991497, -1.0546516240624926, 2.726185562698444, -0.7760569911279726, -1.5285802569353206, 0.13288306224851226, 0.43885572683564805, 0.7956008600069302, 1.2897965094126478, 0.9010288025389037, 0.27264333921792916, 1.0394073058956244, 2.8397815116425766, 0.7155415427965768, -1.4056343145375572, 0.8151894221950654, 2.7048048495209116, 0.9675625068356714, -0.24785130649643314, 3.903483103327433, 0.06722110423668626, 1.7589801628800914, 1.342936893452513, -0.6647643374639045, -3.970579507500879, 0.025724973140365353], [1.6723085400121631, -0.5731823195203073, 2.70385335481904, 0.5382028552628171, -4.249040803542656, 1.3939823542175083, -1.0270849603270913, -3.8783647520128692, -0.18901123031495987, -1.5669950163808386, 2.8631803398169664, -1.6129023196434147, -0.6012129027347383, 3.032937577793657, -0.5842931079701982, -3.452936895751303, 0.12893211240410737, 0.07241688059359516, -2.265173707089874, -4.07991113198218, 4.304883958776657, 1.2466862037852464, -1.8583297283392002, 4.548940930477608, 1.418918469082251, -2.210650791906496, 0.5694926073379021, -0.08548728859886706, 1.9458424371232983, -0.22117838784835306, 0.7935170255250585, -4.2116792763721875, 0.7884820766151737, -1.5930347464887342, -0.6709676176000977], [1.042850260488306, -0.08799899284771391, 0.8696272638840554, -0.8480525469722746, 2.9568752571766406, 1.9073922243409747, -1.10679615551124, 1.7157422930781838, -2.9415376079393316, -2.0000169056838564, 0.2082129743608885, -4.500664950217086, -4.914170399661812, -0.4329280343441514, 0.23630258517609082, 2.280201530831021, -0.208224216076929, -1.6398386995446188, -1.132333198061705, 0.0989293264410328, 3.6020534851558215, 1.759335880985624, -1.6863774095873445, 0.5955506570513344, -3.3528340630360267, -1.5419393166022755, 0.8060856811981474, -0.5602955493158526, 2.162546842963089, 2.376432916733496, 1.7069492263442387, 0.4960485489297487, -0.2641677844308503, 1.305353283461004, 0.7868451503676399], [1.8705346781070837, 3.093069382828753, -1.0089020051192408, 0.8127472721146909, -1.5776481432267835, -1.2288229204846173, 3.936168610341267, 0.9894147261150158, 1.7162675282491873, -0.4447260124199882, -3.1526435650707083, 1.861819516653894, -0.6151946168958324, 1.4459586623061211, -2.4612527798427033, -0.18423226103656892, 5.342707185317192, 0.8027390382027421, 2.3331849092803947, -2.6111754913560254, 0.2764387608942145, -1.6712018973526326, 3.655318886167097, 3.353387542955676, 1.34463132855572, 0.11893699879570833, 1.8451136520107152, 3.5152502031285504, -0.025429336349103004, 2.667921950063188, 0.2222594233539348, 2.9248219593387774, 0.9422864581235434, -1.1171822249136365, 2.235541789017854], [2.366515603203925, 0.9368406321946189, -2.0952331874658676, -0.8160585746088548, 1.5309539427454262, -1.1772631655893815, 0.8552038744073033, -0.7985645170019858, -5.37673319884892, -0.5550430490222237, -2.391791844230093, 3.113673691654929, 0.49242101730630994, -0.9344163336109698, -3.2740666418264586, -4.22569130309196, -2.7732347693428565, 0.0012850869394806647, -1.9621903216001284, -1.052234971408699, -2.297158348546607, -1.6094297142464602, 2.2832134401870534, 1.7966424196300956, -1.196963833671103, 2.785006899466164, 2.1892419374143675, -0.5272703415045042, -1.3414687729354833, 3.4044962065522157, -2.017543592911056, -2.919987369492044, -0.7470065513375101, -0.1098866246756761, 0.7290967371170897], [-1.169162928950273, -0.8467360861568786, 0.8353251443802451, -1.5920132479055322, -3.280825535328496, -1.8183938751748534, -3.125091406934625, 0.31716725578539484, -1.6331702041903258, -3.297834244369821, 0.22011692957184467, 3.5383890890422243, 0.184256113474295, 3.408706507569057, -2.3924824230694592, -3.0647478807001876, -0.9521543513511622, -1.8073473030792426, 3.0182249887509967, -0.48964678561668123, -0.11469853796114343, -0.4266835000614686, 0.4069921817923789, 0.27663169279103533, -0.9655133065927307, 1.9076475468712377, -0.4263301710864069, -0.40171363044908426, -2.97332155640004, 2.1791956711637614, 1.7478400286210805, -0.2637402748582915, -1.770961302457354, 0.746013357004274, 2.6195858169813513], [3.215961734511481, -0.5230737279280323, -0.4919802780963269, -0.9194882762048747, -2.1483997248730375, -1.962197180612599, -0.7132242863086902, -1.485239233281148, 2.295060381208831, -0.8747977183601585, 1.0090246330219013, -1.3848115352786257, -1.4261425872037783, 1.6203727116436024, 1.5107139838876718, -3.5775743095689254, -0.3400506841683015, 0.47515036952474493, -0.9472220770280488, -1.1058858624385144, -1.9022453705210371, -0.3105137954110255, 1.5473236069392937, 0.42568268475487886, -0.037405474437134316, -0.9080250185477118, -1.4416243209531605, 1.2248980683959374, 0.6114239012166441, 0.15917328397115652, -0.816797473678113, -1.9891925256953003, 0.03287593696787551, 2.8722012398441286, 1.1559735394204962], [-1.4559626220962112, -1.2288570361854152, 1.071631332107226, 2.036363277892556, 0.4529455824365344, -3.3741799716720737, -0.12518059268962056, -0.5351598327301637, -1.6846328824763785, 0.7872136497504978, 1.3286891877345317, 1.9235728555310672, -2.749561478471309, 0.13293352459709243, 3.4569807483553854, 0.8215363272067003, -1.2980963587380943, -2.425081921344526, -3.8945142966423036, -0.718116980554342, -1.0813110963731056, -1.4138605469175995, -3.52568204007624, -2.504651627149564, -3.909738386619092, -0.16286593770368282, 1.236785616712307, -2.8746736281102594, 4.630039126015533, 0.11900209192962509, 1.5434822040266283, 0.208951304746763, 1.479175480974229, 3.360940817557319, -2.633247844905182], [2.693278995046881, 1.3479020516133045, 2.443147654804123, 1.0953646371414771, -2.8426014342102195, 2.3755971135267036, -2.358101791052954, -2.8912882070452572, 3.4428495433477897, 3.4851149877125724, -2.155035767949636, 1.8421545597223663, -0.8478875580035132, -1.2904336544468111, 3.3498603738140464, -0.32477069209689113, -2.4776181819990213, 0.28660202499902776, 2.341885235862782, -0.28945016932616274, 0.9878844319461668, -2.237642739224479, -2.6201571725373527, -0.7622233980835594, -5.7066881774141685, 1.408206675692795, 1.4157930353933377, -1.7435188508102457, -1.2973136286547622, 0.9968471723063242, -2.2522942201029434, -3.285783854768319, -3.189124152594541, -1.8304763729546643, 0.22274027198790167], [-4.0474440468046735, 0.026876300781356412, -0.08216807361136517, 0.6085665241679588, 1.2898652112824278, 1.0354805045381235, 0.5666360493564079, 0.7281933973849656, 1.9235636636310796, -2.287220688089193, 0.7684054156102434, 0.5737691149426564, 0.47734942743804665, 1.632709568537068, 1.3266557406279103, 1.418992220400513, -2.8741643370381955, -0.42676517485800536, -1.1079487893525588, 0.10463417750088397, -2.6904500935334057, -0.7810734113033686, 2.3174517876822645, 1.5239896759464922, 1.9643698842840178, 2.683942965706718, 1.6231308170271006, 1.750524628626902, -0.31573955905213713, -1.1873660475336074, 0.1551210087817463, 2.2270521357717725, 3.0509414205272383, 1.005220107729383, 3.3159963735743707], [1.8893308360025731, 0.11336230607384437, 2.2873834579712256, 1.0122269166092788, -0.7397355918578372, -1.0500995727561007, 2.033698909873855, -0.6284622525701884, -0.6488229072094457, -2.2161016436379684, 2.4747600897257014, -2.509199838747875, 1.1215653986074445, -1.322391907417226, -0.45719082018257445, -2.404592342394995, 0.46908490457848007, 0.9632759507643809, -1.919943655400445, -1.4915420573488447, -3.0072984940167515, 1.3897732560751985, -1.2569962814665243, 0.3678213000959238, -2.962516550181337, -1.1891542182460324, -0.9141940803417525, -1.9606774741993191, -1.3779777854728257, -3.215952601283956, 0.7486353499141917, 0.24323583916115804, -1.7100773189842784, 3.5921673378305585, -1.8454714372854892], [-0.018893664333227828, -1.5174853826008825, -0.012972785863164141, -1.7801688306347827, 3.440617471543328, -1.866768382492936, 1.4454733251341183, -3.2301942860955917, 3.4178003061965896, -3.12664592552208, -2.3215300409683217, -2.5742879732917276, -1.1217306288714983, -0.1720975028472616, -0.20733754406774785, -5.353615650718345, 1.7808049266592305, -1.569005947668328, 2.5895737714678, -0.17551743322480995, -1.3072975018968618, -0.45010227400670394, -1.7554003232930464, -1.4373891342369303, 3.4877446238156917, 0.87334682599053, -2.4886617198405028, 0.8669972862330445, 1.093101787935586, 0.06447339321385823, -1.2588167421379322, 1.3825586648101658, -4.646341640180511, 1.0012830103353754, -1.2936426505567902], [2.27521239645682, 3.832935760672895, 2.339559037235316, 0.917608171308821, -0.44365786440545135, 0.23805161352635898, 2.6470125598077106, 1.033499913286654, 0.8407866919888128, -0.07341574033301819, -1.812254284505934, 1.7717866623498408, -2.125241511725564, 2.308264169815776, -1.7728663650024887, 1.5957475096169358, -1.6001477711520347, 2.477041967784882, 5.715036044989272, 1.8606724695024366, -3.660786812816218, -0.48181051652103735, -3.4266114302428132, 0.2742137455718116, 1.4965623954775915, 1.635282870342305, -1.3106613421350095, -1.175131682150186, 2.3884285490449764, 2.7381462399349488, 2.807866627102547, -3.2613872570848232, 3.5961779612229168, -1.3249027834593055, 3.181531495430597], [-1.054491952826688, -0.7015442485498549, -0.32170826648891626, 1.0863426690914109, 1.14720657998391, 2.7985257199252187, 2.558068745945052, 4.632930986892412, -1.0183918991614358, -3.4985365195950227, -0.08534626726504857, -1.6205901113489871, -0.9562535861709159, -2.361643296603577, 1.765140050247071, 0.297072477588616, -0.412909107988392, -1.6694447122546996, 2.0445680064097225, 0.7588431597643148, 4.326707705590449, -2.53802865516997, -1.8107509248301075, -1.4580290319424147, 0.30885731150888357, 5.815422208356733, 2.6399794097448575, 1.6743959358636813, -2.2305053669322845, 1.0342229226101347, 1.8829021696423096, 0.7571103424002403, 2.71666884962698, -2.6888936455936507, -2.1882513840871276], [-0.02796811957988125, 0.45529974031181036, 0.32338668028133094, 1.748472052513926, -1.7137019832143578, 2.0782906821858336, 1.1513283139538628, -2.3919503325626614, -4.057601851141501, -0.06301760525383825, 0.13765986870481392, 2.03626562766109, 1.781512290677582, 1.2063004495636902, 1.3784761592546793, -2.8338166209553246, 2.054048526158839, 0.702136474545508, 0.528959378510785, 2.7533432990440305, -3.1728595706120752, -2.3028443630791027, 2.1046947964820077, 2.6710566968594605, -2.0890253027018373, -4.399030168116987, -1.5333897426402983, -0.12609677612564482, -3.051175615596442, 0.8791320696980502, 1.367655602312245, -0.05108720208176118, -4.190767092835375, -2.441064084942934, -0.5635426756563745], [-1.0978900602022001, 2.507990610587856, -1.2622059066036835, 0.4251022976472801, -3.2266787058676907, 0.6527446130912018, 4.101206270131007, 0.3243559954771816, 1.1109365799773234, 1.126858700424398, 0.02201711368433207, -1.9500981877380712, 1.0171153699385296, -0.034071055669443844, 0.742218021920744, 2.344388182600021, 0.19638125447571858, -0.6428627679175384, -1.6615413447727552, -1.4954817743848199, -1.2649544859536632, 1.018978308731845, 0.9322736135282009, 1.893301582589329, 0.929529766193112, -0.7232743720290705, -0.2172189330146087, -0.4578412887997064, -1.4223952690247479, 1.5771019476776649, -1.8130553698069127, 2.099932387911925, -1.2476821695918467, -1.0073788332469606, 2.1246564613611256], [-0.6052311019338011, -2.006677211670127, -4.037282677092891, -1.9464356528667426, -3.9031469180905227, 1.4567041710932467, -0.4465571843895132, -1.815537424311791, -1.848856247039745, -1.1864339764372098, 3.2188245052083526, 0.5545198893966956, -1.1869229787803988, -3.2463152160300353, -0.8129244866843699, -1.1346204148150645, -1.8654364406416835, -1.413283478292235, -1.40072531594347, 0.9600155109498356, -1.2821368802402253, -0.7656679773819391, -2.0636927539860688, 1.031808424037431, 1.011610330105323, 1.340336589323472, 0.041331009624636136, -0.16892818029052598, 2.3945234669936912, 1.0761846306710998, 0.2778215551901366, 1.737222355530557, 2.6279378718910675, 0.17339393573550974, -0.9540935112862422], [-0.23595313356347347, 5.063367168464828, -0.238691571514632, 1.506270651742338, 2.6692864552224376, 2.3174670047159607, 0.22654758686458945, 1.0030354250220463, -1.5327698293812764, 1.0795401436106564, 0.0666571696480115, 0.444778499718719, -0.8200557920273515, 0.8194327900830015, -0.022510043843562724, -1.3809320586163063, 1.9119729538019459, 0.008673354268244012, -2.3077705384582643, 0.7568086918389295, 3.302829258012042, 2.445225509753966, 3.3097599387833347, -0.9902341273111155, -0.02129029278821078, -1.9930638414587263, 4.090055724681693, 0.17931396794802318, -0.7049642129962355, 1.5494296148260887, 0.23995875725909566, -0.1262718859145791, 3.5761433785204484, -4.059087027479334, -1.9471728631435343], [-2.4674828174730976, -0.9744539665480292, 1.4044971367233847, 2.700123549324924, -0.6719724285822426, 1.6285987266978317, -1.740391884290836, 1.4801610150360849, -1.4680909983666932, 3.6707787339421207, 5.53848085469343, -3.64434943939442, 2.7290552899126403, -0.29802751898992813, -2.352250161815803, 3.459318803089538, -1.9695286667900425, -2.387522663799199, 0.08966169387964797, -1.262286028921888, 3.0180309396002976, 1.0972458502252516, -1.774104998894187, -0.39546893122238447, -3.7207537719319683, 0.2835564995053965, -1.7365680196990807, -2.1367066808773143, 3.265646273513728, 2.6424303930781736, 2.4022110714976965, -0.8165493218312068, 0.012080484778295838, -2.53818754839275, 0.48628321815618586], [1.0540183606905316, -2.5019226720394987, -1.7948979319051472, -3.0450541960500757, 2.2145741174223166, -1.6273310346934675, 2.1895527055716495, -4.363593913912451, -2.3620712042585965, -2.4101014569656845, -3.066801897434011, -3.087917261983244, 4.626586853140045, 4.469204206020256, -0.730188710645847, 2.272816965766325, 1.8914952513541745, 0.27875376335839586, 0.3383721910885555, -1.9757062001519032, -1.480729387281519, 2.457429802508578, -2.982700423857092, -0.019054275618383406, 0.1977281647572515, -1.7413031611193204, 0.037693549818622475, 1.0867805129827606, 0.6800773179820704, -0.37361784135040477, 0.9458842861291584, -1.0297622302709057, -0.39672179507980704, 4.668630311784805, -4.20846092268927], [-0.16155251070138074, -1.2149926167077132, -0.396732718377712, -1.1130580048046759, 1.7387897625415507, 0.4953685146720181, -1.127508863391564, -1.1304608977705746, 1.2311997800920416, -0.25213593125554884, 0.14453272756278113, 1.9576225344042337, 2.47241338263478, -0.875357305032586, 0.08529852683000864, 2.1796858431729373, 1.6607655569292605, -1.7600175539717018, -3.0881546843923746, 2.2011242062524454, -0.021932952680867153, 0.17638147926727865, -2.415401068779985, 0.25664993635827427, 0.5781350398214283, -1.0056846487098852, -0.8285889973516898, -2.6389054284492204, 1.5813655400430302, 2.1950834137541655, 2.5124852942212272, 0.9105748790914647, -1.4461940897966017, 1.1695956284441749, 0.8893321163300475], [0.37900791949503965, 3.4405835695723894, 1.6344924376300807, 1.9271643890472228, -0.3448478934173115, 3.2220428487837984, -0.7556782458063596, -2.3571084780144966, 0.33019940695744054, 2.29184433645627, -0.045686651731031806, 2.129993456606117, -1.2259850825357734, 3.2876900243625644, -1.1361079447087465, -1.0012755529103605, -0.8205964462124843, -3.0736812140213527, 4.606740849879526, -2.3411029278881137, -0.4171390158385096, -0.35671629408725825, -2.7401805131114605, -1.5700264208523693, 3.627196303581637, 0.8431990245072688, 0.7400476626481434, 2.3810750521538453, -0.43966470523503803, 0.6212013048384207, -0.10236934148715819, -1.58742162738413, 1.6992829917949297, -2.6952334526529493, 3.341162470841289], [0.7488512057872644, 0.3343514036649324, -0.9828836713365003, 0.5085333031806203, 1.467956516488956, -2.022042000921741, -0.21381772961391723, 3.2873926029334553, 4.444800366082318, 1.760729941183009, 0.9878741281026919, 1.4017199633032462, -0.9009770459614027, -4.368784836402121, 2.335667848957421, 3.0966992719861537, -1.331995318606508, 1.4139831594358405, -0.3697570083931245, -0.1409215119886601, 2.5623760187062894, -0.7249244683525456, -1.401670067925007, -1.1101794180777236, -0.06950669803747468, -1.5715326573852342, -1.658269280359607, 0.07379453798712185, 1.2371784157992152, 1.316275967383304, 3.8722856424018115, 1.196100684107696, -0.15167025571114884, -0.24784925264294635, -2.894676472027378], [-0.5497506965270413, -2.5343173852219483, -0.18119258821551606, 2.5863737378494056, -0.03277805946454061, -0.9553258333499401, 1.2630557577633523, -1.1236499389921746, 2.9124888474885275, 0.8495733431131484, 0.38076452925892734, 3.0480520398600035, 2.740042824480264, -0.6513000073287064, 0.30005355195588856, -1.4322113749461691, -0.35209163362568635, -1.0423502718903699, -3.7907852226935477, 0.5021266184235843, 2.369697607470622, -3.849744265861122, -2.7423109479945667, -3.5895581950981574, -0.7789811584995053, -2.1419503781996903, 0.2351932768599003, -2.828039320682194, 0.7209649785225816, -1.4997605977303745, -2.994243689454126, -2.243962483500252, -3.899231101147512, -1.2297359884627355, 0.3813632091773346], [1.2335388695176899, -0.2191973254960808, -0.26941376868661976, 4.26704210724178, -0.1430278099838721, -0.1372944865759128, 2.366676062282893, 0.5434197649395981, 2.6227549888017614, 2.3004828286462775, -7.529089912687499, -1.0325353609020707, 1.0129155247695898, -2.880374586347292, -0.39051767703258067, 0.2264759548996241, -1.457082874204005, 2.825095019603692, 0.23470794161455166, 3.1632364360372778, -0.6724047052898251, -1.8951655199912985, 2.8133573845122686, 1.6757800126451219, -0.1956453290547045, -1.8531813091359584, -2.036433233064155, 1.5158094965556217, -0.5740796659180206, -1.025562808548567, 3.897738091442915, 1.223543707461825, 0.2884439136956616, -0.03361932338598466, 0.36420177649181024], [1.6707822530732592, 1.0348722261180718, -1.0420457230739564, -1.399094066465518, 1.1382837643246821, 0.4028273721041967, -3.7135815430850374, 1.8419267731518183, 2.746185635988703, 2.3054770082563283, -4.7638579955781095, -2.054125751916964, -2.479550284528197, -3.455504816575091, -2.774374845225168, 2.988009476268216, -4.041970570184414, -1.7836726534315848, -2.0988469234897553, -0.12857176963554356, -1.0697701105342416, 3.510639071686029, 0.5836776717926616, 1.9347902698867674, -0.8764203761913583, -0.6491624144450706, -2.0486011971181424, -0.09469221171107249, -3.8529862671492987, -3.169709876929271, -2.969432921187039, -2.0486593219037674, -5.555624966236615, -0.2080095810177721, 3.219553837113498], [1.2649357675885768, -2.459531033241465, 0.6675100626885162, -0.6101677768368848, -1.2438701826817584, 2.7726862306803564, -0.7408018874670654, 0.32324755973458463, 0.034041421830488416, 1.7880234036124822, -3.7903066871399327, 1.7201153097665616, 0.9702123289944421, 0.058824274246583756, 0.4582135949166607, 2.924732855490955, 2.5932979315728013, -2.339443010675163, 2.518423861470229, -3.6994165841106623, 1.4999352472853318, 0.02842137152048681, -3.2169842461392655, 0.02792061033521854, -1.848510466304743, -2.405449011286196, -0.23525547537437552, 0.2646029098988575, 0.8494837036245325, -3.066818120290622, -1.2174518193834787, -0.3646009969464343, 6.567514994513922, 0.6665989906173264, -1.9535179139666237], [1.1239398367234466, 3.0846902474303066, -0.4062411663950941, -0.9688574862073276, 0.4191926978881384, 1.1293795800381656, 3.5441936891049988, 0.5972500853359126, -0.910134674005326, 1.3644353006795296, 2.767728891252961, -2.6119954312836664, -2.2539614543651507, -0.3696623011857615, -0.6030249600599675, 1.323519309634735, 4.163622090534709, -0.4244879659422244, -1.448333849368962, 1.9674629071491174, -3.664769617582249, 0.7399923646695096, -1.4163229032419193, -4.306314016901215, -2.45653868649089, -0.963213252236536, -0.8699011861459663, 1.2248073618825037, -0.37242732369380493, -2.778675017455103, 2.4259628135716804, -2.5628354916889977, 0.9807658183938839, -1.2189311161787526, 1.0596569867725845], [0.6941242311220134, -1.1538190613377706, -2.438347095657432, -1.7025143174818487, 2.5718094848823982, -0.07080825217972053, 0.540734586586084, 0.9863343994392577, 0.03696581768382752, -2.681129204815027, -1.7531865671224758, -0.3361739540044402, 0.7988604804196734, -2.803270665842801, -1.9856509837934362, 0.2255286932505722, -1.5074127356676608, 1.7109616999582193, -1.0118665804800466, -2.2728362272270473, 0.8173532385023099, -1.0940252131229293, 0.14916759060337104, -0.08158808031596364, -1.5876022092836817, 3.019209721261581, -0.22509600496874163, 0.928974291716672, 3.469458384470673, -2.19579717011507, 4.644969306437193, -1.9118139712207871, -1.432839278602256, 2.5134948152924164, 1.1654335912874707], [0.24449836222986332, 1.5944154109296627, 0.2299261800422952, 3.4498537224279517, -1.8085363563987864, 0.46819472445025806, -0.10136160660604963, -0.9914939566229474, 2.3065208672495663, 0.1897734196067312, -0.16107733735030969, -1.5095258385053905, 0.8543623828866856, 3.0118776569001406, 0.25918510086595203, -0.3275873872240106, 2.7364623380345177, 1.124194081321779, -1.932448995037751, -3.0927777609394016, -5.915389826790799, 0.0037926839932521748, 0.31992591361856654, -0.3763495784198398, 2.4605316214006128, 0.11313157882448334, -2.864191670023582, 1.447327387996758, 1.43799192587006, 3.0951969406175275, 0.6577721844767415, -2.9514488244545483, -0.5698512658695193, 1.629987359310372, -3.1297229795085837], [3.894352140617982, 1.8005636770135212, -0.03769893897224392, 2.3706572944402167, -0.16782090197299743, -1.9727812266574623, -0.7151552246849673, 1.4727566057622032, 0.8582513308746379, -2.5059524427839586, 1.1414345257821332, 2.5431756852091945, -1.5338763269595326, -0.6913233386753007, -0.26196896307027345, -2.1039747853110256, 2.9207095450715745, 0.7036339265785732, 1.7588971883634028, -3.7364484068499295, 4.143974979859683, 2.20646867895846, -1.6982913898486571, 2.4681761507139477, 2.0299079024079045, -0.40738683262551745, 0.5820361884944119, 0.485890650294886, 1.2368544380868998, 1.003794702965832, -0.7551357380884838, -0.4841699564796609, 3.4496743755251167, 2.1727588057334923, -2.9338965649988142], [2.39801932629253, -0.810272633752882, 0.8177707613179578, 0.6054319503792348, -0.9276652720401976, -0.8513216355847816, 0.07850451043269076, -0.9415791836810943, 0.34989659091382297, 0.7091078032234633, -0.12680030032537817, -0.586411328529936, 0.6511737223221115, 1.576823467095981, -2.80273406080413, -0.3156947382970656, -0.042611333614239494, 0.8466826023279657, -1.8759262774599383, -2.0921456384832666, 2.397495392381782, 2.0856674585792505, -1.8234095749288015, 2.604472514814172, 2.5082076453848354, 1.0036372491659997, -0.15010514160933972, -0.1378015536017013, 2.0126449979987155, 0.14765694473927837, 2.9325469827914015, 1.2799210573568551, -1.0318143187804307, 0.8604379104497752, -2.203256535740522], [0.20706483484288837, 1.3771672234944714, -0.5873169707836945, -0.07429070861210124, -3.0260392798391167, -3.283875039572927, -2.0092969367712175, 0.5552492757862475, 0.6939200629569593, -0.14287930563928944, -2.146035704054856, -0.5234389713114138, 1.0992692400774187, -1.8381359586629977, -4.98758948179922, 2.5544522353783523, 0.1991000671299656, 3.3943333383249215, -0.03137335443058328, 0.35686991100900806, 2.855437633158113, 1.232144690640563, 4.504554314716255, -1.5796448842101856, -0.15164669354047866, 0.9063555799731726, 2.0148321683709853, 2.3037246938002225, -3.039104437905593, -0.47503284711040117, 2.2965018828538364, 4.024745607606221, 0.04803041125789908, 0.15015120693912595, -0.3796294652483494], [-1.9928844635726832, 1.593850011755235, 0.9647214297322737, -1.6136739797661563, 0.2248230898328659, -1.3902292001343872, 1.3314445272739326, -2.1788785795812333, -2.8713420183701293, -0.7856908250838799, 0.2059305622449815, -1.2930974974240403, -0.7508698048505712, 2.0774867655115474, -2.356050099274249, 1.804623235655641, -1.3110232695413113, -0.8851208134530627, 1.088019057271986, 0.6425960115729239, -0.19394052424670266, -0.2988993204669154, -1.1517177173796163, -0.5570126762657197, -0.3625967110350688, -1.2740488257617752, 2.668856183529631, 2.9666486685722444, 1.0794918765590404, -0.3951094287331142, -0.01690703392664295, 2.499186856816486, 0.8967245630782185, 0.12900817316438418, 0.9360221595176105], [0.46105996322116477, -2.9338249988319545, -1.3738637118703882, 1.2234579820964901, 0.9556906378627352, 0.23705471927025873, 1.8541913924800597, 1.3980551445956764, 3.735961455276242, -0.2380076950715123, -1.8330965514414592, -2.403247238805154, 1.4144863791485274, 0.315100164178204, 3.452011733480049, 2.56472646432263, -1.4870284294379645, -1.7707236933611425, -0.1767706389861587, -1.3687039020915006, -2.072473287407372, 3.5073166137564065, 0.2643935579016718, 2.9611681169662294, 0.6268222349535164, -2.3524867310264317, 1.5193274921911213, 0.9484686202738002, 2.7130649243968232, 3.447729427736028, -1.0879955635193004, -1.801921108568307, 0.024197343467001226, -0.3179206686422598, -2.7094329605939556], [-0.4636987015446038, -3.041383719715442, 1.8916763508589889, -4.29903744538493, -2.5758694336465204, 0.11135905561116402, -2.8574800924709893, 2.123772223327565, -0.1943796138683688, 0.8840394838641459, -2.9641940765091834, 1.449411565007259, 1.9288991131009614, -3.6204216758212224, -1.1396790938793986, 2.141374905500921, -0.878095263919746, 2.989787548880028, -1.2573193871431887, 0.8327566877482472, 0.1044750638778623, 1.9860126345550069, 0.11572988757144935, -1.1449526522417675, 3.2189835170011807, 3.999734616366137, 0.4577549890658811, 2.0776096407545013, 3.964068346360203, -2.269438563842676, 0.6270913467195731, 0.052144198133253036, 1.6451410754136429, 0.17340699613593497, -3.1584264159725497], [-1.220267507042971, 1.7895785754101061, 2.7107392888441586, -0.0461427767381635, -0.4235476530244208, 0.40034708829010657, -1.5551528017809966, -0.6118699368299485, 0.5801625297576712, -1.4135846929808673, -1.2137947750912443, -2.346278888584935, 1.4605734725579385, -1.755954920183462, -1.7410203768949597, 0.245021661430955, 2.60718989750748, 2.9849220167647688, -0.051505126085467035, 0.20429210207219126, 1.21180991653404, -1.7838941791925635, 0.36169173824799344, 0.6388317228289813, 0.7061192662415484, 0.7215212969538408, -1.5560052400665854, 2.2306412872418755, 1.816191519707053, 2.8551546383465203, -0.3850142554524706, -0.7279173535605831, -1.0689739729064072, 2.4133172216494896, 1.3156552373764516], [-1.4115611264155472, 0.3875332677401618, -2.372565566767524, -2.051581205496529, -1.8381849697638522, 1.9278331787350012, 2.3592093684346933, 2.2674306530603494, -2.1200358543479276, 1.53328807606721, -3.1632695778864726, 4.577365709218662, 0.3351048576430076, 1.2827669266106643, -0.23781901117820767, 3.2667191991956592, 2.873456412876879, -0.808067010439838, 0.008610222107337074, -3.90196015976987, -0.5573921375868606, 0.5436441487109916, -1.1400582122349678, -1.8814138102888092, -2.060502821051431, -2.985371503049405, -1.3661234274210916, 0.0634458597977634, 0.8523465841722959, 0.2176979626448753, 0.19214768724638606, 0.32827566972863553, -0.6526845283724395, 0.7143827853647924, 4.569050875101352], [-2.84327987546079, -1.9635776316278453, 0.670672316468059, 1.6463156177717808, 1.7155894391356155, -0.1546717982296673, -0.4820292977019784, 3.4346532370924336, -2.940459402761588, -1.2660650235040702, 2.1808994281126344, -0.2541305120444344, -1.1470240936520508, -3.518702915537746, 2.9409690595900795, 0.7332937686534268, 1.83953822882195, -0.7044524721455943, -2.698412256835631, -2.2957802134507705, -2.009107543889002, 1.3349266647603357, -3.3157115592901683, 1.2670237288464539, -0.9994283843108711, 1.3754627128865953, 3.1092713118132225, 2.217249628389969, -2.2518260318713033, 0.7942672330984923, -1.786940766629542, 1.2673740166405671, -2.7193884170086364, 3.7167305988911696, 1.0468075948503845], [-1.1401983734005279, 1.1096091893384918, -0.6190443344354655, 1.9118926096883333, -0.9264292549577149, -1.173847754776877, -0.4938535203563864, -2.0952933229378807, 1.9734216352891256, 1.7924324238934572, -1.1422992326263746, 2.706787384369384, -2.372967966122578, 3.98221170923048, -1.704031630667177, 1.0257848907929457, -3.6083014706093297, -1.2503762715822373, 0.18015208242088854, 2.0007576433834386, -0.7823537877521305, 1.274721557598597, -1.5980446052736097, 1.3632396726395435, -0.02308279577635323, 1.419254574474347, -2.919750790430241, 1.7426763673426235, 2.966183819080869, -1.651841969276529, -0.2788297490448286, -1.2503103220597427, -1.525716268013712, -2.0714140226048428, 0.8297071534647458], [0.7271758621042981, 0.5380783297041932, -2.5786900149199505, 1.3686522053435222, 1.8350077029487173, 1.4134989234719764, -2.7709689552576804, -0.6563172050711079, -3.878899349426172, -0.6938077725638738, -3.49050524188875, 0.7674432821605767, 0.4449884372345631, 1.1802045766232638, 0.38416657047855857, -5.346967230488403, -1.5279064229985624, 2.121145414588524, 3.275675489381881, 0.6437513815974341, 2.868393856815498, 0.6520308081630739, 0.4736773070426244, 2.266368440551525, 3.404042429845484, -0.04027287713266689, 2.350039789073568, 1.0483452024319246, 4.048362649357217, -3.8800492626743446, -1.6315317801097353, -7.263254072365097, -1.8231984457266013, 1.4841426834365954, -1.572371260550202], [-0.659320915950777, -0.959957170026966, 1.9451459191058111, -0.2672627818846442, -2.706606218928687, -3.0724917536015273, 0.15225237256584892, -0.35900041153636486, -0.4056227153520111, 0.38477401681834356, 0.3997541235563595, -0.23582221929983863, 0.0847826305289357, -4.288398086061777, 0.6482976905511022, -2.5723590346659204, -2.214346254708715, -2.592339281241194, -0.30983969281784607, -1.8374393530799231, -0.9832565980820919, -1.7867542971707222, -2.4011985307023056, -1.122904136896735, -0.02989508976692173, -0.23975921627912072, 0.7302151968430853, -4.065469784910899, 0.3872902272681253, -1.1688115414121407, -0.252881127018922, 2.655676459083428, -0.05077839556082088, 0.8228249716402254, -0.02407110387505818], [2.4310352493972345, -1.697312770693178, 4.809509995717092, 3.2804295864137267, 2.2611561968218585, -1.1782890305068692, -1.4508988469460642, -0.8232987957962097, 2.27360019105408, 0.39143177739565377, -2.154826341550337, 5.698350611178973, 0.26206621928753987, 1.3117796102621195, -2.1453964682817177, 1.4271492304227344, 1.383537552100429, -0.38236902146585566, 3.444239163102133, -0.01590716823244299, 2.379461317347719, -4.846095247122683, 1.8776444988906666, -3.0658994151284307, -5.630824848604885, 0.3589131623850533, -2.2279998015143914, 0.40490837221202736, 0.33309597010883835, -1.6741051717670152, 0.06610607657334987, 0.8713374528030857, 0.7017457502016589, 1.0167938466983786, -0.1194624833064992], [-0.39682675530705935, -1.1302434290476138, 0.007932136266026998, -0.5051617822833504, -0.9701768031409588, -3.1906962816388247, -4.691721996142015, -0.6161899627108759, 0.34526481931936676, 3.5757304130846497, 1.880288597382216, 2.6434854503746017, -3.9611151733771597, -0.28848429249624163, -2.0041153842475596, 0.03005008084617137, -2.7301360744818277, -3.4446210148764527, 1.919474577457477, 2.019903193209961, 1.2545533229431365, 2.556417262960509, -1.9922570174143195, -1.2897570385205912, -1.7049333128812882, 0.8078072130886395, 2.046633003247517, -2.5739929695117243, -2.0332644258166295, 0.3659724591877748, -0.6990358688463201, -1.7433894241899328, 2.927597416626121, -0.3427168641133295, 0.541089911469257], [-2.7767415194022957, -2.75027233810665, 4.779729326313825, -0.12294104316196186, 2.744788263888947, -2.303663481574711, -2.0394112870768057, 0.07880278146457631, -1.4361229702774119, -1.3410768142859548, 4.000177499631415, -2.557244106579717, 1.975075212735655, -2.688746533271435, -3.2879330882983693, 2.207721851184898, -1.304360504109385, -0.7289657665377887, 0.9556512778399636, 1.3284868649535235, -0.7014940896942613, -3.4408083994421923, 4.400618116442619, -1.2823568956882152, -3.374644234103163, -0.7638890084552783, -2.6691580316966843, 1.3665889386793113, -2.232782583581217, -0.5998770991073783, 1.3925841151485028, -1.9119503862362575, -2.285395543427503, -0.3664423157445099, 1.2260327576283911], [-0.866157101735993, 1.7690840629959426, -1.1969538704317653, -4.272025249218206, -0.21182361119663398, -1.512928923807048, 1.3237800771395998, 1.5351706424415612, -1.6422913589191481, 1.4980476759221992, 3.025826515030652, -4.37116110156287, 0.2608368140632969, 1.2720857139052466, -0.4006538016740899, -1.8062022459098006, 3.8156832819832442, -0.7333783611002462, 1.1886801874043156, -3.5896789898984616, -2.203365790006712, -0.6653984116985564, -2.57856377143612, 1.3452938068960985, -0.5855713877989451, -4.10771086788671, -1.6332816191664514, 1.928055513648981, -2.0681816382297855, 2.0770429630852045, 0.44113522611824446, -0.9470754958850067, -2.3030225417658174, 2.21243402708276, 0.43161888628836426], [-0.7653100709790344, -1.7926711536539974, -0.19134975919916936, 1.15025557152644, -1.0979154879121136, -0.6139096515417913, 3.0110097010480015, 2.1002234457301348, -0.5799725235839847, -0.8557467465350105, 0.12240276203324246, -1.3026599205680247, 0.3409857448881605, 1.369034830557606, -0.4776269446729149, 2.8202414822371393, -3.6380322827746454, -3.3889756170727208, 3.6200815362925285, -3.2463062480771807, -1.7160725780940471, 0.4872549058649472, 5.201150500516139, -0.11321631432856798, 2.193371691426952, -1.4765127376258158, 2.5964012153058396, 1.197801361190098, -1.3768895287057308, 2.0835900500749114, 0.3653177608934802, -2.0194911433875498, -1.2700848536097227, -2.965040843273998, 1.2545365131218444], [-5.950686095918733, 2.6299631565393224, 1.6223470563421865, 2.635953902004815, -4.237977396617339, 1.2312046230264837, 3.200760189911185, 0.688779757609755, 2.9451211137212545, -1.1194842416030792, 3.9312512169014444, -2.489322181529615, 3.9707747550026014, -0.7557535997919059, -1.3314008455893738, 0.6826666608805505, 0.861968144582671, -0.9321518905574729, 5.323417011317738, -1.4669522571317388, -0.502179773997134, -2.2337031610679654, 0.5781957609539554, -0.6597433879414298, 1.2744696818626098, 3.2721973042203065, -0.6010995640513583, 4.044923092035917, -2.4619679357635187, -0.4621140061710825, -0.5379432626232695, -1.005050007794791, 4.282650271105252, -3.6078289290393424, -0.17795823904629204], [-0.1726406077478499, 1.073333398195846, -0.9682705330850254, -1.412132904143962, 1.0619198606787081, -2.5058043204668405, -2.046220480452352, 3.414440956220572, 0.47844147516572166, 0.6845961025394006, 3.861517246804801, 3.440329913894109, -1.8228072669350037, 1.509681172527364, 0.017057146803042822, 1.5478797055826188, -1.600444391733813, 1.1646974798280458, 1.783748225149257, -1.7632947664346648, -1.0816830504014583, 0.7728286235441298, 0.16678489651843634, 2.413917589345939, -0.1496094393863425, 0.7086876422175271, -2.8276701953225336, 0.397136539112369, -1.7008458395708836, 0.5698553026899064, -1.7324452903823564, 2.80350255141009, 1.5682724962552186, 0.9686562586771732, 1.1203564937212749], [0.8236707557863858, -1.369082194855005, -0.7887793467265464, 3.6955714652952163, -1.3621116631906467, -1.7190159333690223, 0.7413985662630146, 1.609129416293342, -0.5744083945631957, 0.4199144242062421, -2.2217856870664168, -0.28601965892383885, -1.0855227132082501, 0.06204520360088522, 2.1082471326839816, -2.2297926771715346, 1.3962406887176813, -1.617242278296852, 1.1755550179033618, -2.044214246520919, 1.0372189961987233, 1.4049372175874986, -3.5851119511705445, -0.7881870021381204, -2.5628564226877137, -0.4854075623832529, 3.87778110920653, -1.0114746751782668, -0.33562555717975284, 0.9641245072429541, 1.79480392452762, 1.294898370028456, -4.5923695869010315, -1.359474380284422, -2.2252900047319977], [0.6844711329005032, 0.4266429977574827, -4.67030415784073, -1.365829536698537, 0.6071836193065824, -2.996403406064295, 1.068395031520118, 1.4831983922996015, 1.06292021209138, 3.127789021650484, -2.8927259154017175, -1.5953342697317634, 0.2236590655071979, -2.3303570211052453, -1.6428367207663415, -0.5559104752062473, -0.20685747468344956, 1.3172342817388079, -2.668327291817097, 1.4308430144966813, 0.8492483167763412, -2.307322984883092, -0.8139416846213959, -1.7690750255511873, 2.9563753058494395, -2.9714185434806337, 1.4387041380507315, 0.5369167041634055, -3.9899421343089156, 2.049864608808107, -0.8273170030818959, 3.529117125461355, -2.9569072548113597, -0.08104386272092483, 0.9173828295723875], [1.0503810211172822, 0.27569112970739246, 1.7552314674090825, -2.185621634494136, -3.405580097902029, -2.3952355583239267, 0.022106510889643993, -0.35074052678128065, -0.6293374155687127, 0.48461134766689484, 3.7790960343018973, 0.18862099768046178, -0.6466588747677253, -3.214774262676642, 1.9045315273475967, -2.0552726858034203, -1.8010639475219434, -3.639988169030911, 0.7867818029722238, 2.4389472786929716, -0.8788450069311866, 0.5518839935973946, 0.3018233463360285, 0.24096981665011052, -0.16004996855643155, -0.6331063776867837, 0.7356411255724278, 1.314713094046058, 0.21655779692087276, -1.6640196524297985, 1.2382746629754304, 0.8290719361697947, 3.89148770974314, 1.6930373176154865, 0.952500759796408], [1.5891717805219117, 4.664947419142158, 1.5586875786034518, -2.6650803527867675, -1.7091935134550393, 0.010557983497953003, -1.7517372105801001, -0.41429174931407087, 1.5046256950009804, 2.4408498092838506, 0.41543122374092945, -4.88134044930857, 4.6466655042578875, 2.419961883514185, 4.857803232858908, 4.64243987151826, -0.6428477711025875, -0.5861010278558085, -1.0677927283308357, -2.5964312770091236, -2.5689830931622613, -0.008099900240378743, 4.840388402616785, 2.3342051088104996, 1.7716501303851067, 2.085520063725858, -1.775697072395703, 2.3386054451459213, -4.5372376059477455, 0.2509588429299944, -0.5281633584809419, -1.16324232302648, 4.0147418152258885, -1.865712717479758, -2.5286789740977795], [0.9022332725073137, 0.3724900578701293, 4.27378153537586, -2.2564694052393257, 2.5289114061773703, -0.4375432592799889, -3.666117931540386, -2.18788672988222, 1.8023285953535533, 3.13680430347398, 2.8180269779491987, -1.991769403139281, -0.4701335136972174, -2.929667602865707, -0.5712235810201395, -3.150776314245239, 2.9036530666148113, -0.07406761549731959, -2.4874135349222946, 1.1414973725930877, 0.24672912112744205, -0.5356169522529789, -0.99818155883147, 0.7485470283047917, -0.6166827468432674, 0.9297207937897018, 0.8356527823122017, 0.5292921283937333, 1.9389591251159455, 0.4064261368856874, 5.763386831836143, 1.5606351870926842, -1.6603010572624561, 0.4436071868642144, -0.598531750000245], [-1.483463762862764, -0.7198897648729707, 0.03253670499443983, -2.0964917511536334, 1.3857919139420822, -3.6373165765146855, -0.775949408549749, 0.7220765558607747, -3.151450837709816, -3.0781119620658273, -0.4025221453361579, 2.9798120779937207, -1.8786812511454722, 2.641944079645801, -2.1467913883243597, 2.242900412627245, -2.531073477217403, 3.4846913739383805, 0.8564134724496494, 1.8308151466686646, 2.0582463871798717, -1.3343995165767861, -1.6047853763738313, -0.06573056542122829, -0.1504880134961281, 2.012324146355862, -2.038127664252854, -0.7753537851568049, 1.4356952464754245, 0.14147297600636782, 4.242150144105216, 2.708228761219278, 1.4882444501908068, -1.1702424838460785, -1.2700093344978642], [0.2840290027461915, -0.7777856291186234, 0.3219107598264158, -0.9135350240115938, -0.42949061601458044, 1.2622183983847237, -1.034228356419576, 1.791681521370233, 1.517939156753434, -4.3037771487814975, -0.03392752445754601, -3.1057603990653906, 0.929342125125603, 2.864162763435396, 0.9216145313963559, -1.4533424770300734, -3.689381747403959, -0.0840403971917351, 4.446935611064785, 0.6956558436323059, 0.1897605804332716, -1.6279619672198873, -3.282209560053478, 1.271924389317704, -3.4479225143219567, -2.291060126705588, -2.2153233271809785, -1.491962782349212, -0.12853522178686475, 0.6694384926980115, -1.3409392043313773, -0.7688708382622363, 2.554910413979865, -3.169968372030966, 3.4800831147764373], [1.4412443687926006, -2.1863360755994146, -2.5949408949887727, 0.39374325737420407, 0.3419142903494529, 2.3754559483147797, -0.9549403439175786, 4.293296023755463, 0.44100204606979637, -0.9894195097886513, 3.4440243705931066, 1.8226378626367066, -1.4103309321380864, -0.7450125949563865, 0.265435852823713, -0.8996606694849308, 2.1787580067252574, -0.7229111860240958, -0.8296160901067352, -1.6709318528052841, -0.7280714594792198, -2.1919471576191047, -2.352053277698868, -1.6372846246220512, -0.35733452590776543, -0.6709977154349419, -1.9668440319009175, -2.4049941890486894, 0.5926683736275613, 5.018766333403143, -0.9386645410348786, 0.94761713774484, 0.7607675419215698, -0.8062382933664097, 0.9105145673244284], [2.4541788171980516, -0.7197051449647484, -2.1063801333817205, 0.36575858852825754, 3.0160069827956164, 0.6480828943510185, -1.877699976668362, 0.46487658573784374, 2.352376051286148, -0.3660274191428156, -0.26997218556174385, 1.037991821983457, -0.7491865022713372, 2.7138427979636917, -0.501072487434515, 0.2727161515468519, -2.935421631266016, -2.5111988506022214, 1.6828779100260507, -0.9099931161570392, -0.44627418740121055, -3.8000845852172644, 0.8343508442200265, -1.0066920529946164, 2.262053046038076, -1.3628815416979703, 3.7009875369792713, -0.15347269532111668, -0.19257847690782284, 0.8790839082326374, -1.916686501336658, -3.195191577941661, -1.4527951865407474, -0.5880529373365508, -0.4194793451526836], [0.8569451697325117, -1.8074443954989503, -2.0043576925723015, 0.32111316495246744, 3.1051266155569377, -2.162613214528564, 0.8523601978270032, -1.649644793469528, 1.5454746099836167, -1.0209168797054113, -0.8773201079306224, -1.3315739326767004, -1.9143716652894702, 1.0398745943506846, -0.33070432396190963, 0.5917601843428417, 4.05376315334585, -1.0151105294024942, -1.0237937397310404, -0.21010525270843716, 4.030429623026077, -0.3568449977313347, -1.175302818341339, 1.2138263407357686, -3.1029895471159556, -0.47505295600363695, 1.8978993873582872, 0.022409345077415984, -3.6157635608587, 1.2359300428692372, 2.722282539878873, -2.1139844727752095, 0.13825653971939805, 2.787942644670518, -1.6605684491810722], [1.0439034616205976, 1.0262841511624752, 1.1626686981563628, 1.4169789986765646, 0.2921787848962828, 5.390906082593234, 1.061771544946284, -1.8235594501153718, 1.5426146221966268, -1.678868662600459, -2.1863045666859087, 2.321240948026613, 0.8901535609975446, -3.391870390485715, -0.7576364424217922, 2.81950156174037, 0.209100598098432, -1.640253756021702, -0.060086788640917856, 2.7618523981966994, 0.7338670462569702, 2.595474376793511, 1.4568425934158793, 0.20396235512831293, 2.5053027431707915, -1.4493351593268633, 1.272121830647006, 2.002458925121267, -2.911290756278867, 1.865346521859134, 2.7422769141755667, 1.958995146074074, 2.637532442740612, -2.0748749945458935, 3.970451202382533], [1.1915220360320753, -1.2645690315971678, 1.4687781909105013, -3.2663993292806217, 0.7392805072888259, 1.1519766636507487, -0.569036544164575, 0.9245801887825805, 1.6677634633652438, 1.6174575365076578, 1.25117984967882, 0.544730356206614, -3.4720993445205837, 2.2020423004151946, -2.6645594826056826, -1.0752831486636871, 0.4849789814531754, -1.3348923740025813, -3.1549016259971183, -0.8906011935150647, 1.4394165121420586, -1.1388000694086478, -0.47903277759510265, 2.6265120064341008, 0.27723508229996957, 1.1096095152656225, 2.0199040097958867, 0.8981336969584776, -0.584541816022533, -2.1963246788821955, -1.2357592780875921, -1.133831046519943, -1.0901395933273343, -0.30652056914681786, -0.22438177515441832], [3.025547283404636, 0.5090049136173761, -0.1157613628805517, 0.12833087900659682, 1.6111083329322762, -0.5011336456314508, 2.0560508300113858, 1.375709368570643, -0.7830488037762687, 1.2332396790457045, 1.7474144314067837, -1.1788156376337813, 2.193553234700671, -0.9545733797421656, -1.5569049910601658, -3.1074098313543077, -1.4397782516827389, -2.3067420507795884, -4.033215609947569, -2.280473343868451, -4.714988252475181, -0.2966455541730981, 2.765937354988045, 7.141030163114112, -1.4934002788308527, 2.0288403376766495, -0.9792526398719966, -1.4312400225498956, -0.6625677193272227, -0.7277908903682148, -5.0316228349727075, 1.5687834496026345, -1.0119992453506035, 1.0284302190239587, 1.151744250011477], [0.5693058050999055, 4.3334325718286495, -0.8197437155943638, 0.6591679929375351, -3.2006701286205006, -1.7903762507579828, -1.1548786339696115, 0.5152465643146759, -1.590761271663195, 0.2986732543130415, -0.47696123563184073, 0.4584086353648181, 0.7129866446336903, -1.558462545004442, -0.6352850898271245, -1.4340074727357397, 0.6063155235237049, 1.3127355535475438, 0.3356807337096024, -2.000510371422506, -2.32170593878688, 1.3357921412499227, 2.609214907860318, 0.30001364891768517, 4.2469286884868485, 2.8455151709850055, 1.7278182019992119, 1.3135772728094872, 0.21303980677660736, 0.5360874509027876, -2.0300781925834763, 2.5463897945949374, 0.670161717950767, -2.6552896584751013, -0.48830659013344174], [-3.773264684036057, -1.5553041600130795, 1.3638580679531143, 1.1892827890803988, 3.5540176681227975, 1.3205634955147039, 3.181137699752135, 0.47346333944482205, 0.5847885242427217, -3.156368074464765, 0.5292750907332646, -2.2263937543470655, 0.41855302357869645, -1.2763447591986754, 1.6804428443663655, 3.9436208282722798, 0.3832096757620153, -0.8484206124398114, -1.1517416692393276, -0.4043831879251374, -0.6766960448530711, -1.5869489869495685, -1.7321614088411819, -0.8616489901662717, -3.0429922142451957, -1.9091075491046006, 1.1278526303051881, 2.5505197186628132, -0.7547928781297998, -1.0433713285768274, 1.0335119720153254, 0.4943635218907984, -0.21100222662367843, -0.03753533320666136, -1.7760064784786294], [-2.310329483331457, -2.4671888592546187, 0.7579948318410672, 0.43814111044218856, -2.531699132679712, -0.12825313112302186, -2.963289113450288, -0.6420077935335866, -0.8978129191019629, 0.4290779510546896, 1.0225359334808097, 1.6848789971181808, 1.0561032310511578, -3.522122399988073, 1.8036643932103924, 0.837901095791272, -0.1905009929852492, 2.437458294557322, 4.305759212274554, 1.1540269619216423, -3.9315411718466255, -0.9716666366427328, 1.8751221562747926, 0.7482232426771899, -1.4849292254150201, -0.9955624723962855, 2.357839107345475, -0.28732340959271363, 1.1798662142773755, -1.045334920838536, -2.6270266723695044, 0.15113510660033808, 1.1424093117814358, 0.6913408563236981, 1.634633824025244], [1.609408554439219, 1.1907616404907464, -1.3072026721384309, 0.4947765723474037, 2.367218910263882, 1.4488570429310228, 0.04464100745753005, 0.8089264826417674, 2.2996796904379875, -2.1649261005974934, 0.3157378012126597, 2.1500444786235033, 3.5895646702350015, -0.9281926583665054, -3.409546104158541, 1.2162165500955524, -0.6399557307159139, 2.191642679610841, 1.369588698147028, -0.318211831184246, 5.306488471944098, 1.2097918413112934, -4.411228833362089, 0.37054709696618265, -0.018313438229068307, 0.1966482121503812, 1.2359050260878313, -1.0553741865043254, -1.1474310334646547, 3.8561475105066823, 1.1883674776716973, -1.4668514891153939, -2.7960216319645075, 0.6440241362127358, -0.9463138731876813], [-1.7904422320517195, 1.998645355272447, -0.7744006565493817, 0.11638614212692569, 1.1226715040893738, 1.505812831442882, -1.585855479460938, -0.3074338040428561, 0.03292093647226017, 0.48838677924088086, 0.6271698296526126, 4.122328772013324, -0.007504136509238491, 0.67710555531002, -3.633219564320059, -0.9889191181026324, -2.1161880805999336, -1.1558506381383067, -3.509184238902627, -0.9967605042342434, 0.5618736871291445, -0.18141358156279347, -4.00459524488776, -3.3842737721385294, -0.7786610029772735, -2.0075284348322406, -0.23538720753413486, 1.2589259420092895, 1.7352723157621612, 2.637060529734158, 1.6738039569818153, -2.261490507377908, 2.738107829743094, -1.791216405189554, -3.0464030800766375], [1.93028992494912, -2.4374558806600453, 0.2601195376874596, 3.463941006600021, -2.1497906289905777, -2.4365773564226023, -0.3024359221887614, -1.4700983808356465, 2.2749429316377086, -0.03607397938754143, 0.8279910391326565, 2.5762323900641007, 2.9749850370474977, -1.8367512986088572, 0.04306197321574908, 0.5626178239932761, 0.09112462490647924, 1.503114125052954, -0.4295818679846109, 0.3859857510023806, -1.9733313999712647, 2.1326691343732853, -3.7069712420736707, -0.7382643343667683, 4.351467091976498, 0.5372293474943151, 0.3685167189975681, -1.5361101607104488, -0.43819401499108945, 0.1448122819114779, 1.6027454725024015, -0.28483067694970565, -2.771942932620089, -2.0498764218881083, 0.029354355286694805], [0.35118141382541146, -0.407723644766487, 0.003385980896219881, -0.5958069716846289, 1.255395165144096, 1.4986247904238195, -3.193615696140473, -2.7283866590519894, -0.5095835702018875, 2.2700914737711555, 3.488576346923713, 1.6445226823342625, 2.205988337714035, -2.445483052460441, -0.26273456344844415, -1.991814344656201, -0.25321691004980384, -1.0977955902840442, -1.0045076865413634, 0.43929454812421986, -0.6815984625069904, 0.8598028630338839, 2.442272648563503, 3.7935642202280264, 2.5950889612102133, 1.220228321845139, -0.28086726191659, 0.9254116799346849, 0.11904195648909653, 0.3071653098736263, 0.37935321556679263, -0.34650047578784954, 2.747447060814849, -2.202110729964033, -0.5170217905324477], [-3.6444040509856244, 0.616565481639202, 0.4309177741484805, -0.7833918041103256, 4.529254220642021, -0.6989986733326621, -0.10546616983803835, 3.9436856666520512, 1.3669424458659225, 2.1507861432848396, -1.403128789658114, 1.4178350706286054, -1.5942356448884847, 3.6001781144315257, 1.3089710352799762, -0.44030654283504345, -0.2792171150110062, -2.999554279610103, 1.225164003877406, -2.0353085653377283, -0.20024821401543857, 1.3166625786377941, 0.5800295777167632, 1.4172814903300903, 0.243302819483782, 3.793991420266434, -2.1400187108728455, 2.4831265798803654, 1.8441102288611682, 1.0976334178576574, -2.2128323161765064, 0.1274067490049602, -0.7733364214173797, 0.31760253939111505, -1.4693662481003598], [1.0877481742721087, 1.6636002286148783, -4.816711542558252, 2.9043766898385943, 2.936937299846576, -1.7824818167545076, -1.5042021210005827, 1.3375938904810667, 0.15476402264564362, 0.08651498334525008, -2.953246047506566, -0.5365151182492454, -0.3735147842143898, -0.3394800798664721, 0.20900922776751543, 3.486467862156023, -2.7767351295626597, -2.582716222364357, -3.374420376425026, 0.5727432727594909, -0.6228829257796347, -2.9202195180184782, -0.6437393037629449, 0.382914678535, -1.7308098756615986, -1.7523835496274005, 0.4703775757977744, -2.9303356585509226, -1.3103374843895863, 0.4883369590336761, -4.5702708851453915, 0.614043280070506, 1.1586961429343656, 0.35222105355429467, 1.3142395545573926], [-2.92366594460211, -3.99904301341508, -2.3614788542208642, 1.9070748742030978, -0.4297525941487098, 2.864633167715, 1.6538124365089588, -0.08525552552681966, -0.5712428269697599, 2.604390785257912, -0.8666416289017245, -2.5630710336207456, -3.6697631576912295, 4.2603350493675185, 0.3418037207548592, -1.9700147384504132, -1.3657368119933406, 1.4611760452365878, -3.8090973663167653, -2.459802887690692, 0.08785464684877686, 0.4708411465359867, 0.900615039170246, 2.5518022022917823, -1.398309462948289, 1.5549440602586955, -0.12025395304331343, -1.467560699713567, -1.0161686524054998, 0.5929711794039275, 0.08726570355301058, 0.9090249269892495, -0.12825280638569947, -1.3328543693170234, -2.872781227052067], [2.737358965017801, -0.7065825096029431, 3.856873556409186, -3.615962458657589, 4.176956810040723, -1.3853203426054221, -2.0793286206077295, 0.0634864223642174, -0.14733230238442532, 1.2491396683336202, -0.8158665932536293, 1.1380616435733493, -1.6513673276781848, 1.2638449534114882, -0.28278644117408025, 1.9770269295225575, 1.089410995301091, 1.772161583266689, 1.4654674807359964, 3.2363445257287613, -0.7106205976089616, 2.4084018994698893, 0.05397138802993821, -1.1527729573605066, -0.07282996956668082, -2.568127378557403, -2.3152718453894465, -2.2612628713308958, 5.2674557848152626, 2.804940068349755, 1.2265781943697804, -3.4438704590041156, -0.6853306221857699, 0.13172874333552678, -0.7161210237458429], [0.7302183291556966, -3.31738947058795, -1.0363196896001228, 0.4067714566938055, -2.375881041031039, 3.1406611086414578, 2.2607929692476825, 2.0268681923683545, -1.8172532608161724, 4.020462813587453, -3.5509547353402566, 1.2119037367716037, 0.8736682851139761, -0.16689669824130654, 1.1275571110600806, -0.29142010598895585, 1.101062264461199, -0.5964944895280186, -1.009976672045195, 1.2066918455868167, -1.3091779746545051, -0.07836894583285674, -0.7700652523382578, -1.1571607665018346, -0.6061238012773461, 2.5582227581467265, -0.5735870241787627, 0.97868861540946, 5.279156064261703, 2.245883032138991, 0.8408355453209898, -1.8839122386580354, 1.4478381201631596, 5.017248605076012, 1.414539844892735], [-0.49041023828903624, -4.4764026960436345, -0.5053195623152243, 0.7804335527130962, -3.5673517119008524, 4.506734775101096, 1.2986472043106687, -2.426448536927407, -3.307358013280338, -0.19187176221105626, -1.8201996572631416, -4.278411374115463, 2.1083342220408463, -1.951387172701568, 1.161317949337765, 0.4687793268585468, -3.5334972942090785, 0.7370749236689664, 1.2949052469536753, 0.23105568081662814, 1.6879511438503392, 2.9423286952291248, -1.8725611899634198, -2.989676160731929, 1.2483870673825341, -0.8972185158335474, 2.854168456851277, -1.5193128057379242, 1.7387107231157561, 1.6305941583512629, 2.2691767862412955, -1.2623686386703463, -3.9387314791564534, 0.18837620975084052, 0.34629608287652286], [-4.414518355266039, 0.3041012324770752, 3.168873335793363, -1.2289269776903957, 2.360849543044935, 0.5082379349080984, -0.047730303124166235, 3.6530066811885553, 1.4956127624484543, 2.9415498744348096, 0.4255314006597322, -0.2278590893587668, 3.5143050765150368, 0.5185376015251519, 1.3084270535095794, -0.14573833160417793, 2.224528143087915, 1.0775625518896477, 1.4766515728400127, -2.0031851076858365, -1.797386216921564, 1.6273727149845243, -1.3085820545312743, 0.31296456041094395, -1.9683807757790064, -0.2614396586693899, 1.1413891353878916, 0.9203714982059759, -1.0506251025874143, 2.1461917966234565, 0.43046600118865624, -0.15134041247458893, -1.247068941318593, -0.6602373245084421, 0.5934381109377942], [3.7220776333313013, 4.684845058862236, 0.8533554227741723, 1.1867148810470713, -2.3959050729906988, 1.4216325396437643, 0.0640889766737149, -2.880763778995005, 0.21271965271763402, -3.5294565652093177, 1.1956463629869796, -2.1100310150869173, 2.5853895790749517, 2.4292256424949494, -0.6562640977183312, 4.119476459044975, -2.286860428104828, 2.7935397470094663, 0.07685623380200496, 2.9803914206222255, -1.4473275343365828, -1.756147258631921, -1.31665594849424, 2.689415163890734, -1.2681439135301138, 1.2173566342700268, 1.2024862454687997, 1.6339794112003987, -0.04860614443627321, 0.45757040564664686, 1.3322625538908055, -0.33897328399153814, 1.1525343234124175, 2.0904337885127986, -0.6598143102355628], [-0.19114452282869562, -3.502379729518528, 1.6990677552406994, -0.13779633306679046, -1.2220691871449099, -2.326656664980743, -2.6271771628773832, -0.06186543047899967, -0.6012665264847908, 1.5388957228752291, 0.755488527224517, 0.4181025601521651, -1.6766600151385826, 0.5154576648814239, -1.7479910056805779, 1.2287480952458523, 2.311574536950886, -0.5758299300204889, -0.01989420598041484, 1.9545691883840395, 2.2519336679011035, 2.679987916116367, 1.9018522634866788, -0.9765505603994171, -1.3238848310687936, 1.3576567459644047, 0.10022364977689266, 0.21886107296142837, -2.7059585514392657, 0.42240002471318566, -0.9051279048938639, 0.2820571114151575, 1.0194956851723762, 0.07545244157917261, 0.6325018505332629], [2.24991204204673, -0.051476742978083065, -2.527621146041852, 3.9692565120536454, -1.6702187143047313, -1.5326639636228758, 0.15494949454970341, 0.028586378448769056, -1.6194105402624432, 1.1869566571344277, -2.427876492547397, -2.758983620298273, 1.9647630285262636, -1.0424133928583443, -1.3958078044837618, -2.97806347305917, -3.4156268502017997, 2.4292167328598824, -2.211153148736145, 2.959186515335238, 6.130558127916927, 0.1144582392378393, 0.5023089076535958, 3.4467913397515817, -3.2573583653555587, 1.680226590763365, 0.22334964849949313, 1.0010980284840403, 1.5334048396908218, 0.7666315206735799, -4.189681519615396, -2.5636450612368944, -2.2049147093503754, 1.7575179806220316, 1.0683372152166066], [-3.8767408309228264, 4.687941595722184, 3.081184048622645, -1.1254386443221953, -0.44378347862125483, -2.2063028695827858, 1.6736776582874204, -3.041702314962701, 1.8786191390431433, 1.2879837969890473, -1.7904621732359631, -0.442196511923209, 0.821369472892444, 0.09004791298168355, -3.115723515117692, 1.396557384732235, 3.973747447702887, -0.5717866243848269, -0.7913172820009916, -1.9799150412989222, -1.450340791101989, 0.8829973445165923, 5.042536162029024, 1.375802753114317, 2.780631855114952, 2.8449877037005193, 1.9604489588850766, 0.3567725351895955, -0.5567177239763218, 2.8728290324949928, 1.2421389369583775, -0.7586442870485793, -0.07026713375725348, -1.4990781312155788, 3.287137852448294], [0.15807033680920377, 0.8732118381987207, 0.07297287641959961, 0.34072639382633196, -0.1694836947467634, -1.6185374703207258, -5.668095752119089, -0.7304744863952861, 4.577603945429028, 0.730104180636659, -0.18415064563729486, -0.017372274425552503, 0.14332779641435303, -0.293626908956274, 1.6973687860630444, -1.295727868033844, 0.25421236380026646, 1.755899232715167, 0.6446912072126034, -3.906504592246462, 0.3837423327320082, -1.3811112084807866, 2.5606450019282216, -4.448410782363465, 3.8984451764582606, 0.9810109900643089, 2.081145121944501, 0.9586690423326758, 3.2498188301324755, 0.5709861298756543, 1.1893242329131195, -2.213522730844941, -2.061559771050427, -2.7529292286586213, -3.393995254257033], [0.521379667536855, 1.604844585971974, -1.9147362433846757, -4.216299250808702, 3.04997864506406, 1.0843037261985264, 0.706444763419673, 0.276379009662872, -2.1888359273612084, -0.3108004964718273, -0.04771844933119956, 0.5241331320758444, 2.1053448214821087, 0.27235857432017596, 0.9138354066429738, -0.6745785982066173, -1.1471985303752397, 0.610115799999724, 0.07832332060935754, -0.4260402287143987, -0.6046938478405975, -0.30670855780828815, -0.10771314991494263, -2.4497407251412904, -1.3669406537365574, -4.063288153715127, -0.5287912756811917, 2.337493495963268, -3.0874598317227675, -2.792141689178251, 1.1698931065724503, -0.6152768354920722, 0.9167776560924235, -0.3855766282529047, -3.798400248416194], [1.9020622711551356, -2.5837855895810176, -2.7693008519692666, -2.5890767776927563, -2.4736775415441197, 1.5855066844613004, 2.9523078066028416, 2.3703248286757206, -3.2809995039035265, 2.9709434933759806, -0.9728423166373217, -2.4306156078806835, 3.371532665675705, -3.054514480323693, -4.019473602995575, -1.9256728040218056, 0.08201577576872274, 1.604980306448224, 1.4065710526969026, -0.401304703937186, -0.4605933763969769, 3.7000360870750124, -1.5845305012525261, -3.004875793398944, -0.5155925552264453, -1.9411779538214295, 0.9031288898625677, 3.623676660235202, -2.5804195529096434, 3.8321466886442623, 0.043982299956195396, 5.039136314063314, -1.2303902892814538, -0.20261847969312713, 1.502028064742671], [-3.711474196089452, -0.9332716348425976, -3.4135388775485755, -1.0944127024433232, 1.730273409921606, 1.3315899911946885, 1.9085259149122245, -1.3644186066183168, 1.650475880737746, -1.0129231524590365, 0.5967175357741284, -0.2478050121390881, -2.9365273282493805, -0.1345649684458419, -0.1406955096815808, 2.413395814214682, -0.45250519691295943, -2.795608016764115, 2.7290202391076606, 1.6299510010793632, 0.6661787099961131, 0.5553190304247498, -2.4218645820843054, 2.0352376938374555, 1.9534699453926716, -2.1836097474321723, -2.038671490243976, -0.2652185276053456, -1.1596137286309298, 1.6092268260076668, -3.0480206766133957, -0.8533795475580439, -0.19135163106263636, 2.4897815855427683, -1.4353872321324057], [1.2108930656815176, 3.1920434482338607, -0.4372462475347893, 2.0563992518556597, -1.2607697511868539, 0.7379689102129464, -3.943087291691502, -0.5263192700921522, -3.176711453377921, 0.1947541619955533, 0.2106991436941076, 1.7260572644045675, 1.5986483157468538, -1.4614813312798172, -2.346795972254744, -0.3700674323966578, 1.3245004260166744, -0.35071001115667, 1.2846592765794265, -0.7668029511485397, 2.5962765798360548, 0.9058553986121127, -0.10190143650929914, -0.18518367541442513, 6.090293712092603, 1.5160397761194842, -0.30926580880768906, -3.1181384742320715, -1.3774801173963498, -1.7242122734905567, 0.6256907954645845, 0.6648861209368369, -0.5586644339370651, 0.23212741272508272, 5.260694354075732], 